0.3745401188473625 0.9507143064099162 0.7319939418114051 0.5986584841970366 0.15601864044243652 0.15599452033620265 0.05808361216819946 0.8661761457749352 0.6011150117432088 0.7080725777960455 0.020584494295802447 0.9699098521619943 0.830947176429047 0.19469578241559238 0.16583526757510278 0.18273827234532675 0.3042422429595377 0.5247564316322378 0.43194501864211576 0.2912291401980419 0.6118528947223795 0.13949386065204183 0.29214464853521815 0.3663618432936917 0.45606998421703593 0.7851759613930136 0.19967378215835974 0.5142344384136116 0.5924145688620425 0.046450412719997725 0.6075448519014384 0.17052412368729153 0.06505067408097104 0.9488417048969808 0.963264736932766 0.8011611649116315 0.2738930596501132 0.05938936710160499 0.6275139595912103 0.37793455038356255 0.06797822582405097 0.4523426870084851 -0.014561284606691465 0.8625580291774453 0.18556210530901893 0.6213383523945589 0.305334773769683 0.5143461058069967 0.5382137545680283 0.17918649830197253 0.9660916985640913 0.7750297287151906 0.9394989415641891 0.8948273504276488 0.5978999788110851 0.9218742350231168 0.0884925020519195 0.1959828624191452 0.04522487860286606 0.3253301797917636 0.388671739708509 0.26772380720005967 0.7967182271887876 0.26118853469065206 0.10437714248589763 0.2757293029814469 -0.16693314951846894 0.48413112706332545 -0.24152151400752608 0.6920707149848917 0.3176905710166603 -0.2591755138532868 -0.42002098909056373 0.44765825770078843 0.39398651211823876 0.46660438456696446 0.5678024227919803 0.018302043603961763 0.32245569286913744 0.08848014454979945 0.8294965594532429 0.6069321520865408 0.3308980248526492 0.06355835028602363 0.3109823217156622 0.32518332202674705 0.729600897734129 0.6375545151087126 0.8776287267311667 0.4066163720573196 -0.05004396480834539 0.40602841301187137 0.3713463040324622 0.1267004059879221 0.35226582407832724 -0.9819872878185816 -0.9477903016580372 -1.1483334114966628 -0.4592380072885078 -0.38609281051625044 -0.4661503076265546 0.24141996160250867 -0.23138869082096256 -0.030604462608874866 0.3999767458389235 -0.15792968721468337 0.20718269761961555 0.6242722146206476 0.14616831501668304 0.05410014448402428 0.28895368241982855 0.16122128725400442 0.9296976523425731 0.8081209688615817 0.6327444359609998 0.8739709789468835 0.75193183499439 -0.024858117279569332 0.5676475119149123 0.11462747002958865 -0.6522795473881268 -0.5514079235043323 -1.149433457321565 -1.3783279403721194 -1.3696645719183533 -1.2052135356088098 -0.8559017717019453 -0.7281563992530109 -0.5395309597880308 -0.013644510640880866 -0.08638710108925828 -0.24091200831809528 -0.4656785752828264 -0.2778593921837937 0.4751121637741266 -0.011628147694800629 0.32768743487383206 0.6082579119908148 0.3334043481174674 0.9674571415610369 0.9624472949421112 0.25178229582536416 0.49746497009862384 0.2908919109819652 0.13974943527583128 -0.2869659097851673 0.2557480748991677 0.14453739208688685 -1.3889902766008646 -1.2225493264119738 -0.6209678734798055 -0.3347675537970376 -0.48054958026836553 -1.213653255979039 -0.6727076025001496 -1.4429482357811794 -1.012609605003872 0.08534468971486339 -0.37925231314533947 0.11316730756254499 -0.3251046845403457 -0.0247636657629586 0.12457522253258631 0.06443870584392974 -0.30930373088804497 0.5930757683849832 0.25174157517820195 0.1831284674267382 0.040775141554763916 0.5908933271971203 0.6838991689807429 -0.0061864791143871264 0.29984647416860133 -0.11336428022941006 0.30794715747857787 -1.2581342223878598 -0.7676314878762907 -1.095737679782499 0.4975216846150235 -0.4328610750458938 -0.3299072130376864 -0.4524856493471278 0.34173893835845714 -0.7138854303275093 -1.3819468293586303 0.013481197613858962 0.14098783932544914 -0.09560488820035914 -0.16082020359825394 -0.39761196470342547 -0.3951212487554621 0.3900873014736213 0.4526418884319459 0.2637890300860386 0.18469217545147704 0.3323351435912379 0.7264247732656195 0.9012698976324709 0.8913161928237985 0.7538525571440917 0.3908957023694642 -0.21975377038016455 -0.17621551005056593 -0.5187824693811928 -0.8947906656289062 -1.450288421498402 -0.33538308832352415 0.07743314392460433 -0.577350626608541 -0.36188030302105884 -1.0211961278974218 -0.8812933266446237 -0.8826952978142025 -0.28372693707988345 0.1609392968214718 -0.25752936904706264 -0.22792924382143182 0.18551646826488433 0.22361026107541326 0.35833633277111326 0.22888420493986641 0.21022093218422827 -0.1162678000222757 0.3423048356667568 0.26664136367668595 0.2768632618103172 1.0004239296734858 0.33068789274383625 0.6680570394787015 0.3774501206031394 0.47136424213156136 0.1504807879198064 -0.9275851636103912 -1.0591682226601615 -0.23038940765290847 0.23392956206751092 -0.25215290049521827 -1.6432481633224847 -0.8783951718702335 -1.3235855535746275 0.5435694292063608 0.5209397415682328 0.49866794626163125 -0.012641196957681284 -0.42317725158968184 0.4368208791391983 0.04156269847919487 0.5480138040466594 0.4881067414498087 0.46849110029322427 0.0557903721754701 0.35158269877452214 0.8538298539298077 0.3685452253421199 0.2119535809381174 0.4906462953112173 0.7353509593500794 0.37407471261058683 0.1661472850878399 -0.3902503093816008 -1.0199162340289285 -0.584824134733686 -1.4144861328378107 0.02524661468112069 -0.8351906703339289 -0.9637752247855024 -0.9504249982251844 0.36314808524236014 0.09306833325197558 -0.0435534454977201 0.39577675640104326 0.46491652989928983 0.4084101445693418 0.4370381598833313 0.10744457289664332 0.019329957380782758 0.39512074598373437 0.2852823050201558 0.4950251504730483 0.7642335650811215 0.8952337215505861 0.39132305034818765 0.43732921822334286 0.08010804619245114 0.36918174678632454 -0.34029707337227133 -0.12639361303421245 -0.15891277301902745 -1.4621235000655644 -1.0774992642101842 -1.6357164152017623 -1.6759270018008017 -0.9686942051716942 -1.2588503884513154 -0.29504798672663757 0.2896310348764526 0.6493104155106199 -0.04358988390850187 0.30650322473715197 -0.19470437134860027 -0.4057071511574518 -0.02053632641350316 0.019096428436550926 0.13459021905723056 0.3032749391217876 0.6490902266255705 0.3693765919803628 0.2921286116563476 0.7966378594534016 0.3252149116891017 0.5534857284255081 0.13753397808053042 -0.17958298228444614 0.5369807908454972 0.2317357670585178 0.0006355661632511726 -0.27059736089725067 -1.4934995480060518 -1.46035600482751 -1.411395809044779 -1.1880654008211122 0.05618180959116491 0.2057971631783743 -0.02057143907966998 0.6294583633827382 0.33396075732516795 0.2562512375782885 0.09644089178119408 -0.0545648780794356 -0.4113240933147731 -0.24360832370517121 0.20479591672634795 -0.49758563244502935 -0.1936732821420118 -0.08893717011781985 0.034452772064945396 0.8578926918289691 0.7444233077197966 0.5940360352618645 0.17897801911336772 0.2886412585974488 0.039853859366638184 -0.39809947187098277 -0.1421483232255061 -1.1267490382273735 -1.0121720258273046 -1.0455783994205774 -1.7226223455414635 -1.5169671311819244 -1.2346252313932715 -0.04414418281470875 0.35227503454899467 0.20196136789238903 -0.292159069073551 -0.45252453912957463 0.011709920176328877 -0.5655903641680946 -0.20849117435430267 0.3076684732276149 0.031760936008124706 -0.09045187953164635 0.35121902719936793 0.327777336323816 0.5323324885405875 0.9414632688768529 0.4098619314316848 1.0503491992566771 0.9458905162366967 -0.032131707239373385 -0.356212639987022 -0.434378236048568 -0.5099420232962991 -1.4422165220240006 -0.9442408612928861 -0.5949001408240402 -0.5726568467193391 -1.154518778808725 -1.8594703900350318 -0.7969451360693216 -0.1322486476547971 -0.34421064274935376 0.11855826030220575 0.0631021678126594 0.2209458037062774 0.06839030163117706 0.10044259379951836 -0.31553173432869486 -0.3480543034384601 0.32666875400001166 0.49735546399830516 0.8589177802621037 0.3810241303629794 0.37200841780720073 0.7899625814479571 0.406889179434917 0.9534699076360991 0.5867975428651669 -0.06511520247732283 0.12752108342331947 -0.9640532255784988 -1.5055242482826208 -0.7772649875883422 -0.1886283076461161 0.06848126157175376 -0.43050075198175625 -0.7912105342085911 -1.1393216045174426 -1.4632343701870134 0.3473465282540582 -0.4179633935528966 -0.046690740914186055 0.44828129614204854 0.41527265254602286 0.10402466185595699 0.14230751241522213 0.00025475426021628054 -0.08432839040342151 0.011105175323488401 0.5345779149574554 0.7474360809546605 0.7915758781047512 0.7899558161076863 0.1130218204432879 0.3800905902623378 -0.35062030840137315 -0.04412653588290085 -0.2576138973283556 -0.9086314727391408 -1.4587639745003846 -0.5766685071148853 -0.5260643783576576 0.1584794766453535 0.034204195144587626 -0.37990512138643173 -1.3587401235092296 -0.8389722930219372 -1.5884059293423338 0.383527012886337 0.3858631426350096 -0.393148006958783 -0.35499183514417004 0.6233580664098591 -0.04223495866081807 -0.01532141132891356 0.423493424746706 0.611040023033991 0.8011728465625976 0.7365456874675871 0.37625958554584743 0.08353515362358137 0.7556988931229579 0.295769687203889 -0.0032573872675131133 0.40825788671811597 -0.5424033263968459 -1.2859368619108285 -1.7804658517913188 -0.23836437173287495 -0.6180079952996914 -0.5269912850264681 -0.41368198639773196 0.22847189190109315 0.3347499276117766 -0.8916320647401306 -0.6764092866689767 -0.03144899447801178 -0.21726161170022104 0.3985599923522203 -0.2873341582338232 0.5942603473416713 -0.43548114647398833 0.5071266103160104 -0.3858032692996573 0.5022625515590208 0.31566418607332786 0.9701301764043396 0.07379656473539886 0.5542959622930711 0.9104153970510946 0.22210770760540544 0.2504896044240644 0.25492735147823903 -1.1655002410568889 -1.1043452836768743 -0.14053518344031046 0.11847657716541163 -0.7383482583620289 -0.38290759643655164 0.39041936439788283 0.5071259964731539 0.03370660883167217 -0.8562420435392655 -1.389353697991719 -1.3394999702610568 -0.0781083327742218 -0.24616998935540135 0.10365320379772669 -0.40441582070114185 0.46332471586034973 0.5252162043762325 0.272164240361664 0.16539516285931954 0.11469822182311205 0.8009199437393003 0.6847138373414605 0.16274029592240272 0.8531171546345468 0.5202276433108406 0.5919470552494323 0.2610020715223403 -0.9991239103953511 -1.2503972902463185 0.23729877864562887 0.10540048317508961 -0.7567158114209724 -0.6728346488153015 -0.22303449553016036 0.3545649590131599 0.5672617449907338 -0.3614602995842857 -0.9958853753197774 -1.2728182375244392 0.3658395642447986 0.17788672128185623 0.30435658815066646 -0.03361540919004 -0.059441999063419564 -0.17208355525806923 -0.3444973264921568 0.5270143521514706 0.6639436658666567 0.9885396037642493 0.9966368370739048 0.5556909462362869 0.6809258919846857 0.6550256069796776 0.5186945592186675 -0.16049602419790246 -1.1115811979069745 -1.4913014998059675 0.3731035078929154 0.03700643122949517 -0.4146514385298122 0.06533533149135855 0.022188731427878212 -0.14102877958552304 -0.4114950914083668 0.15378063239970127 -1.244465923988019 -1.0143948525237927 -0.17034691210607528 0.3033074543345631 0.0386340000312402 0.05128795653124105 0.3660459770065395 -0.06263623857294517 -0.24717203964213666 -0.3170367999327165 0.5795269673002561 0.6142218253908005 0.7040797680992236 0.211600506979046 0.008219509767039945 -0.33342837384704394 -0.0606096274989692 0.1592240520107778 -1.1930347474999419 -1.1777727948258796 -0.6832985827655496 -0.1408960681483672 -0.048763679122761805 0.21018347658082484 -0.21961152269635278 0.018391746077352458 0.2761108582214283 0.20215173228728617 -1.67680583142329 -0.847894795370272 -0.11231468801484994 -0.33989027846365805 -0.10746039881472619 0.4006629671948415 0.024866966791034128 -0.09527209159422136 0.22118775863176804 -0.05255293235569689 -0.0693545159613146 0.12888179812794398 0.12804583891212074 0.14328126608444267 0.019883720345340132 0.275211742457206 -0.2412443587391078 -0.10117485988475973 0.36108507061873896 -1.2287578464533138 -1.002111136328415 -0.4099700109915904 -0.448365893610166 -0.5964939725884449 -0.46737027097254746 -0.4392004683575729 -0.6325476035985326 -1.7094275938323573 -1.6883532818825848 -1.2505851201171962 -0.38905978033162547 -0.26140427623846535 -0.028678819929709207 0.1759001916238082 -0.41020524582339457 0.36822974913217893 0.23394126041660435 -0.17730842851726572 0.7911005992391379 0.9208724005318132 0.06107795981063862 0.2769227558100068 0.7450682562713941 0.4832688227766035 -0.22506008084477214 -0.2401655395736716 -0.07515904234848517 -1.146786983590143 -1.0677336281868215 -1.3573557334121107 -0.21201884246976296 0.0361366050819637 -0.767593399060876 -0.5569205326347082 -1.0990474380099031 -0.8365716189004339 -1.1049807188743515 -0.013473521475040835 -0.40353224327674475 -0.059327935361836545 0.06063114772730085 -0.2945845556636578 -0.2362734270732659 -0.06010067947137443 -0.29208403929117255 0.1600482015124191 0.19602856963405474 0.3274973521779147 0.11976213181925122 0.890527280739895 0.590462472155151 0.5943849985254707 0.5699305375748734 0.19056466117261958 -0.2041162717203424 0.25836251878489314 -0.972404829239031 -0.9782928013667693 -1.3419152186545635 -1.6229867960752982 -1.4991322466303618 -1.3531661123875953 -1.0451693645550604 -0.9698142129051586 -0.14439707298163604 0.5406236115430567 0.1310346460496627 -0.1564838051136929 -0.28420167573786775 -0.366457499365172 -0.2540029824426818 -0.22929874728865982 -0.0032825431812128826 0.2133046006088211 0.17423435896958095 0.8967654246264252 0.08023374566164221 0.5245113895702547 0.4135700061494237 0.9960153938868223 0.12529552753091236 0.32545768692626614 0.7782231340932146 0.6027512671112784 0.46627538606575114 -1.3733039475066517 -1.443690093132374 -0.9264427628194928 -0.7019961815953403 -1.0210805513140755 -0.8859415029383515 -0.0724636946326542 0.38400027571341167 -0.11621497689973029 -0.104913964615533 0.02037308226977675 0.09793044492812682 -0.12111749978388518 -0.17516119084307066 0.41166934399783506 0.1848874876535653 0.5301728108747387 0.1502099360471848 0.4811401018548175 0.5325894325515859 0.05182353682242691 0.3367053312624159 0.14911047508429381 0.12735968693163618 1.094056420229895 0.3526090859430369 0.6847664139341035 -0.015094891323511777 0.35494316695811906 0.4085938149792109 0.33201217623110874 0.17950268654578652 0.15713920841061657 0.10662072259475207 0.691501632293605 0.5714915922929866 0.6931824426408018 -0.09963966147012472 0.5588087392287793 0.8181199055727235 0.15003505237053616 0.07806713336462354 0.7263060016179526 0.5760137952558514 0.8380529916634953 0.13535448137163106 0.7952673118598902 0.20162732004774453 0.1636559428657045 0.16426579793099294 0.8144533391225203 0.679815203793796 0.5574028368220426 0.401081010819504 0.8702591134669169 0.3549714599800789 0.7763993111980859 0.40038442484586517 0.3031699464751214 0.3415949643403356 0.20229149627877888 0.6530204766309802 0.45103754367042836 0.19592306945449126 0.9011580123531987 0.4213299593127246 0.5940683181117115 0.9476123143702756 0.6601624565920987 0.16022614983594335 0.9459446718931914 0.6276783830073112 0.3349056146574124 0.13927207266338726 0.794025189270296 0.6200727559285135 0.5334610919763215 0.8938925830509576 0.7885972112245307 0.1517702892206517 0.31187948683047445 0.2501494583191593 0.749123005612328 0.041797421565346875 0.5835524485592056 0.7824274990089954 0.8870873998490959 0.34990782198532616 0.8370706553063443 0.12412696501196913 0.847650079085773 0.14565787312539233 0.423068719115877 0.8461017216480087 0.1976628360150491 0.25722290399115916 0.745524625164551 0.7466125148078968 0.6462472396170841 0.6939484444671 0.5427244433475962 0.25179905890695276 0.34569599350391944 
0.18159771680142567 0.9084505613336283 0.5833917947661205 0.4008514167636399 0.4620058036441327 0.9472833396118153 0.1533514031160802 0.5862298320167972 0.505888678884466 0.6114542354346478 0.01811018382084051 0.8721239089441515 0.9305197614940292 0.5437682165566023 0.6767707670350378 0.9216710454464083 0.7072386343133986 0.15253904291426135 0.5762883601668132 0.6067150463828559 0.424130671302386 0.7364442356247228 0.9343670147690148 0.9255685129067763 0.4508393714041321 0.11323804584075525 0.9848411989623346 0.8388980864459341 0.12466268120326685 0.9208418826173723 0.8698963620621283 0.5188380571260721 0.5912744662240754 0.39895784452716015 0.05236832575731675 0.3274267329004846 0.7656221437100109 -0.04155557021178282 0.26651636821217695 0.32718199097471656 0.4799329674739042 0.8704320860551749 0.28344975710158277 0.287173506696424 0.6477256159015098 0.40323195553959357 0.21718828163095047 0.44618816327780986 0.1312208216533331 0.1703747310578046 0.494870004806777 0.4188468637440864 0.9148459010681 0.3623938991166331 0.5805883502780435 0.6322642879195304 0.013094456588333636 0.6635373720167106 0.17803318483265992 0.9610700978944772 0.148659922213224 0.4104305200988442 0.047692254547346755 0.8802550695984404 0.289543006976383 0.27934468753605796 -0.29640934314172107 0.3778482732806157 -0.15898798949843868 0.5464886665236808 -0.29454819132664534 -0.3203062596836839 -0.4325790727255137 0.07740524606449979 0.24299048608288337 -0.19232121850309283 0.5874124121223258 0.39045398736042336 0.4845214775048487 0.4081891642622363 0.35764977795050235 0.5382596894550592 0.1552402459307125 0.18192813049527112 0.8617856210135173 0.9461154621336327 0.3733032117016331 0.2707472240661199 0.6336061029942232 0.32904176316897615 -0.17829125174963634 -0.21202393420475774 0.25992458472292035 0.15682648982017544 -0.4489471337145526 -1.5440826709549762 -1.5286764027077253 -1.1676508710918498 -0.4854265737008139 -0.40962557981611714 0.28244938950340404 -0.25991643611834947 0.08808218644571253 -0.31805915096196047 -0.43208003671897904 -0.17365107737518695 0.48663166955714887 0.7011365043005411 0.7315481292314471 0.3685220816291133 0.6680140983782619 0.20498429541582097 0.29314773026101326 0.8963348702048722 0.01212940335706239 0.08503492663909547 0.14043957374659655 -0.23294956763911903 -0.21063048530311487 0.08279057328465467 -1.343780927413718 -0.8413304551660712 -0.9334344528517018 -1.4248771996163403 -1.5894013039664907 -1.468581216458806 -1.290168161658079 -1.5419544851879743 0.10324354771502144 -0.07336957221859873 0.038154384595509426 -0.0737608620823927 -0.33626703807824065 0.28786167360295417 0.2288783739697279 -0.23989505000085035 0.6474295347070496 0.372581625991798 0.8570900887588437 0.7950748778199624 0.42521350446923345 0.022469308320117398 0.26873911881503076 0.5190374203268909 0.4443352948889308 -0.1573853291670725 -0.2963714390548926 0.4180948774735799 -0.7246062235104629 -1.2304320354737732 -1.6111799737010126 -0.26621745375973604 -0.5193762373306339 -0.9354748949849585 -1.6905172157481487 -1.2517681493113266 -1.5331754142891336 0.008008297547899388 0.1031755627877878 0.22130696086807916 -0.4773682952550998 -0.623296615027087 -0.3779785911579717 0.4045970767051552 0.4192296743043067 0.30756104286267566 0.5164104303496746 0.6616522571148455 0.1753712786234496 0.9144127836038192 0.4133132788240016 0.3184822862577172 0.23751865624850244 -0.3773245856505392 -0.23479663443327664 -0.9704341629595908 -1.6275284241366137 -1.1262869712839065 -0.21078475384459483 -0.10598779468201128 -0.27935503673342094 -0.10934837460000807 0.20876506711002116 -1.481643693145291 -1.218071136064637 -0.046361648460036146 0.0953345049544416 0.30787859574529197 0.0642364360257513 -0.3859203498761316 -0.41316396988249704 -0.21746011413459138 0.11654996072544342 -0.38213793177912136 0.30928938163804104 0.5776305567313846 0.333650174448927 0.7654360292420506 0.06618310928296085 -0.0382021667725108 0.3580302800195969 0.09058437956428007 0.2753243040947552 -1.2844427375575338 -1.51809395471127 -0.8944741431901477 0.3434107180553391 0.15759884517426148 -0.2441633304729497 0.0973999753829557 -1.3927549125742158 -1.7111620096124416 -0.8523457108210158 -0.3285291257440996 0.4014294596505263 -0.12013193949925832 -0.4191670962187501 -0.03504281616279853 0.4396250868348413 0.27211709176793814 0.38780211119773045 0.25129239745375204 0.43519231204650105 0.8192725553569206 0.2470226749662289 0.4695928054246668 0.135978760985439 0.7572830172731667 0.5190305747613598 -0.37079491507951523 0.2579375786808441 0.47905969204255217 -1.5980826156753105 -1.2408680486373427 0.4527535047517065 -0.45739918111006533 0.16778012558648286 -1.5738735427942734 -0.8359520015596631 -0.8443037723824984 0.47313395245063317 -0.01169104147761154 0.36156175277885505 0.34001087824096954 -0.21071717209925842 0.30275448739877403 -0.38305640780614014 0.21175279374050957 -0.22961863612457664 -0.3119714250126541 -0.21528804923513875 0.6544536677927603 0.33930260542517193 0.7000510474834934 -0.033215497402658986 0.03438410793484492 0.12437985495033364 0.343016388924373 -0.14147624608818546 0.10413823584650737 -1.0190432651141552 -1.22348844720424 -1.5750261569002104 -0.4856290051039789 -1.0397175561866772 -1.8964944038532248 -1.0921685393822376 -0.004147614986923525 0.45898976062937824 0.3427569694675576 0.5076868650890033 -0.12391181025976919 0.22252833875525485 -0.12917564617034272 0.04104621435231789 0.17510297737215597 0.4901150037971965 0.571041029060289 0.51490835292563 0.37462305868043067 0.420841233225352 0.7111484129856304 0.13882490316809415 -0.14269188856303416 -0.0639457330213184 -0.18038203418882445 -0.28915141313934584 -0.4336252639446202 -1.918787671469873 -1.912050322198563 -0.9198457373292327 -1.4672874030364889 -1.6061886271818728 -1.2755165907409656 -0.4397701919305276 0.39323417315602044 0.3610724315738101 -0.37012817126276715 -0.038034600853043436 0.4541088907151566 0.36738156776098346 -0.14129138423221724 0.054751417150183335 -0.32514006141002 0.55823881139835 -0.15400399017775757 0.7673913922966128 0.6096965481363011 0.606866130853169 0.48920976242141745 0.14127161695422605 -0.044688506471924364 -0.2050800605193792 -0.3432189490140632 0.14551058461101163 -0.3409390114422451 -0.642455406643399 -0.9960399239909251 -1.0105885745152505 -0.9618212107018336 -0.9628269503525309 -0.5633130321504811 -0.28630183061711767 0.13884949214608558 0.10388319779246528 -0.4519362190050279 0.31224837778518294 -0.43359345256443343 -0.39188294297725507 -0.17147684780941075 -0.059793104957824056 0.009127751960234283 -0.4849573543208833 0.4980248658643137 0.10128913657882216 0.12130683339364269 0.8883877660741208 0.9386770570462784 0.7920816410428667 0.6133659637047534 0.24408319465114184 0.0011179251535547302 -0.5194854227090375 -0.2324062886472063 -1.5149703674219324 -1.6890009784505415 -1.1808778097981243 -1.3999534012553314 -1.916295350232652 -1.838613873104897 -0.02983942029898654 -0.6656611099244532 0.16433115100100984 -0.16265179070593053 -0.14965181248592013 -0.12681301526191288 0.10145897897525187 -0.4711058607778319 0.008508779817866713 -0.003888061706102902 -0.2861550933697396 0.5134722672107942 0.6330292589210511 0.6408368146380168 0.8505773107585807 0.8617507167232388 0.6730377879741605 0.6772875724164812 0.3199071296462809 0.1757291999879218 0.027287977258541814 0.1383990910475223 -1.727161696542075 -1.0312210130344166 0.32326978232035053 -0.5942675484513202 -1.1867771549394246 -1.9737845501964792 -1.7084407890443498 0.026299417085771444 -0.546175014010773 0.12527741321464092 0.22130828123397375 -0.169342653361142 -0.7297704299502855 -0.4451482949274741 0.002447859635772999 0.42117175456780764 0.13384805982383308 -0.12426934303180323 0.46950078639496723 0.5001782746797966 0.7798563789068496 0.10560495928296265 0.7460768053293602 0.4128141707582372 0.594294670836878 -0.19446529128402448 0.01929934049344943 -1.0381072526674158 -1.7808862523586373 -0.9267754303228883 0.15147879562544841 -0.460135304402788 -0.32381133288066105 -1.302134707327305 -1.94566175857246 -1.438370331332429 -0.35701091852217737 0.05173409308858917 -0.4063594073456546 0.29652855494078767 0.36119301125933 0.4115742423912912 0.20129250985393363 -0.38010648552365905 0.3164685017932965 -0.36818856421858337 -0.14775701788990314 0.31747992998183666 0.48864678685703794 0.7703119326698845 0.67035100914878 0.22402079853193277 -0.2119730995650477 0.42778066929698894 -0.19910618825792983 -1.5177029732608092 -1.8185155680078509 0.22246469714337902 0.15926285671534265 -0.29909719988837236 -0.5335135243030772 0.015660063248924157 -1.3162011587305216 -1.7091382431763942 -0.9905482498940865 -0.32775894935890204 0.026347614136115607 0.3988632528544841 -0.1228032570089206 0.18843226454420028 -0.07932918895536067 -0.15564828139577136 0.5502404375640569 0.004777115491350717 0.6690182938732392 0.20882714227229202 0.2131047040322914 0.031295036997051606 0.6152927241875739 0.027237439525377268 0.3918885252163937 0.024797248377373557 0.37560386999551465 -1.7723510920129528 -1.0760954116871249 0.16350027929911526 0.17770889457561112 0.20360658038801815 0.1324499140235596 0.007010542235525239 -0.4809108246861806 -1.7934816230012673 -0.942210530164279 0.19963676312453588 0.29833692346150475 -0.005618638811866738 -0.3841398984866973 -0.2815383588838179 0.22705825419565126 -0.05804347989275682 -0.26821258572647877 0.03192353288074173 -0.19610317425043272 0.5530808624989635 0.26899340443509767 0.7979212561144683 0.23461861813285542 0.08586656728989212 -0.4205717875966037 -0.3378020287585953 -1.3682592119227448 -1.3894398058727684 -0.006553281567487761 -0.3998111447293262 -0.06100164702284233 0.17213783484042885 0.1378623078217048 -0.5229152410136956 -0.08604905394615892 -1.667070028227507 -1.601631271336223 -0.7606254866858191 -0.3888704781741321 -0.06892709675153706 0.15695207599027533 0.2528083385858681 0.07223134584714969 -0.4368307350435208 -0.1295123517354323 0.08179686993887514 -0.15273530070912206 0.33458121135564295 0.03320070800030423 0.07863615470508169 0.3220366477774905 -0.23274075728767213 0.1727020124956075 0.2622575802675157 -0.9241106190511263 -1.5662684004079988 -0.4202216718475513 -0.6022987252078651 -0.10428855084647973 0.04096069704281795 -0.5748654803488044 0.41657179436970443 -0.449550545822094 0.03206791688863126 -1.093609387035553 -0.9982763947828863 0.1358516039663852 0.17602771559270095 -0.16692325266147695 0.3651756048492704 -0.3448499662293863 0.47817817307785665 0.12487779805378767 0.4187170255665204 0.2665803561929441 0.6283415856990079 0.5264026609361115 0.7312179075682326 -0.02901879321045488 -0.27887875795723077 -0.09685728446953816 -0.1745884022848483 -0.8026434591028997 -1.4917164942476921 0.4844418457844299 -0.20091771568033073 -0.40028068605277767 0.2686193291566344 0.10210832383326056 -0.013064045573261357 0.0087863361330041 0.1706064424617576 -1.7393285776208267 -1.0103199302687786 0.303092617853544 0.10029170674372889 -0.2879185010976718 0.23113472224022072 -0.38641344204194883 -0.4150459822461616 -0.16559355244222804 0.04645809977327211 0.6515313991193289 0.7188357413287408 0.742706521199981 0.4236375586682845 0.19188903982386457 -0.03168677236062719 0.5622571606426058 -0.3274103729928375 -0.8495883136631107 -1.189005374694659 -1.3422809401746274 0.2815556960678095 0.00026902032045090563 0.42091801375694105 0.35761654680186616 -0.15174167172926575 -0.3218488457893686 -0.12706004650848693 -1.0958877964153304 -1.782136597903819 0.010812915059457202 0.04675224702130934 0.18442774309655866 -0.3938924228670479 0.3103663410565164 0.5077517105691061 -0.28962560049455516 -0.11512452234193295 0.8012481000302921 0.18099730374568893 0.8543850932026656 0.4816961541227501 0.10756076627780839 0.4495259369908102 -0.0031332891930877333 0.10123903734721124 -0.13244157189768963 -1.2775267487208242 -1.7021666690121706 -0.16604580951494796 0.40364568843081206 -0.2568047615196611 0.1219877632055744 -0.3311304368796939 0.03369147034102633 -1.8604973306839059 -1.034739457723367 -1.501080776085672 -0.3686688383990628 -0.5230363263464164 -0.3441454614021649 0.07061149814116104 -0.044758271170873214 0.408942840696344 -0.021674344496955586 -0.06359051819349448 0.5240924444673145 0.7067772168854458 0.16704190773925248 0.16760728886742196 -0.03722235795842344 0.425914445751577 0.1990923168385769 -0.028539488377371913 0.34790959170512126 -1.131627463632082 -1.3950585226199594 -1.093377172776383 -0.4198302536731754 -0.4829618200361242 -0.4110242681820932 -0.623805258506732 -1.4507885042045645 -1.0158136134929712 -1.8329042389708963 -0.4436895332109975 -0.0607345731262783 0.4267383217767015 -0.1542044696715834 0.02977692050100684 -0.42455042552693895 -0.30863574060692156 0.621072645410037 0.767991359376299 -0.0119066900069004 0.9518117854232391 0.6391199378155004 0.8679182945200221 0.4477497602084438 0.41040975452261175 0.19548346780153206 0.2350795157126126 -0.31532823898112144 -0.4312580548128559 -1.5850504338465252 -1.2785575085681058 -1.7415463882433717 -1.2225837378042546 -0.9743273629630234 -1.8068129156567916 -1.239385927666747 -1.3875760060496625 0.3066630499239772 -0.3621875343572287 0.15362437891134187 0.3959880727814536 0.5371537631285529 0.15903868982836805 -0.014746580352154929 0.2010234700964652 0.6437641442937649 0.4817882203332765 0.03149432282424262 0.9309486955069778 0.6895267510315611 0.6765133857772465 0.21523544196544644 0.6553851377834138 0.32094205825623784 0.4177454481292785 -0.2906410411872871 0.20063190404877235 0.5408734931345562 -1.8427829357830068 -0.8563691736728407 -1.4229342260764177 -0.9920478060121358 -1.0482848521812886 -1.199402813622625 0.2798194782072141 0.3929353365653694 -0.0014564999933914205 -0.19021148544577476 0.1703899679823124 0.3280400058900138 0.33164434604888976 0.468922328721184 0.22975623797685907 0.6954333223274366 0.05639303342246988 0.5391663671145921 0.0057586604981215705 0.3245858299002703 0.3664615348713979 0.39622189428497673 0.6946619160210313 0.3775645404316097 0.42581508381897465 0.09792274836969662 0.09900734991984135 -0.17965767624345635 -0.374048000771817 0.15548916324366766 0.26307604019694714 0.18414053235938302 0.07157001330301054 -0.01818650988179411 0.4606335644930195 0.10847868320840334 0.028556511155096324 -0.38851361041387633 0.014868227089055589 0.16156818234758263 0.31294765976004163 0.5432389699191766 0.5209512960386551 0.6110119915835119 0.7601718271833828 0.8074636458347335 0.7181230762264944 0.9555236959549347 0.01823258267636163 0.1957779856835461 0.007439367513160132 0.6439665923999898 0.8837357763495796 0.21364913095653648 0.8368799168271166 -0.0902023294305228 0.7763100336852573 0.19876782181575767 -0.07830389812865857 0.27640916209205335 0.04093754687158633 0.07596954214011445 0.14853861076446404 0.6358530724902537 0.3751159677239043 0.16366011302934455 0.510395113059218 0.6656753031161406 0.24544729715025534 0.40338475480621644 0.11878875615136848 0.18111231353259546 0.6811178539650083 0.18143834769562694 0.5251633836670602 0.7090462617224327 0.10687692309474384 0.5673122196289035 0.25656278370136376 0.9629149028689002 0.48320576148366673 0.8052015440222837 0.5480611658044912 0.0403629823539266 0.6285020799458301 0.9412586652164784 0.5765208494534411 0.7831028416702807 0.8428194892280921 0.18125934634803523 0.17302858582499786 0.568317197737386 0.3654118379599267 0.7957765221897299 0.8728197077946747 0.3412462183117508 0.23173445455624425 0.7775516501598971 0.2745923802930217 0.8226143185136784 0.42373825364876283 0.6675498992914705 0.09553531383466818 
0.623859324676573 0.4517676787372291 0.5866084631754741 0.16801420774486342 0.7368737449441821 0.8627970775432285 0.21673980009077565 0.09571455552016173 0.023638586046336396 0.641971500443266 0.6070940360887808 0.54669741271407 0.23007267084667948 0.36613955711336194 0.5714833779960844 0.4958088189425421 0.9877855202148873 0.13643975255673313 0.6951445540475938 0.4043187681042921 0.42819961492561476 0.7175977656581762 0.6924361513243696 0.9912559937021883 0.12839428945412523 0.10410964938416634 0.7243388171287412 0.5783869170064091 0.27416066655980587 0.0794193689889866 0.08565824959643054 0.8941908746641183 0.1918660108422208 0.3233142889222714 0.22365317887036487 0.34547754868454433 0.026002125393578945 0.46561475229624727 -0.009251824189202852 0.7175915135681666 0.16464897771313713 0.4813645292781786 0.8078961869417786 0.5821352051418942 0.42772949388111886 0.26745822901385535 0.3248917675449237 0.6624126346425656 0.9836482174848801 0.6552250326714162 0.5539308611762384 0.7305663030048232 0.46520561228371815 0.060142342600785215 0.5622968158779098 0.9576252845053802 0.17530294235765964 0.6900048908206657 0.2009302149347136 0.5358274520939699 0.09667421998466447 0.4456042536832062 0.712884380450154 0.21341294090012294 0.420489371207787 0.43583921490394656 0.5149072609555797 -0.18693519139021256 -0.019515920186870196 -0.24437289419279581 0.4655843110118033 0.3847712726030961 0.03758760416354769 0.4212579078959176 0.1881569075070141 0.36903221903669187 -0.08377779653854152 0.6901993074356659 0.08904074960353732 0.7933153586757281 0.7346718367150337 0.6846490833495218 0.036160380524762115 0.3031283559453286 0.26311256991084286 0.3601364074715191 0.08763508627551059 0.9369602059649004 0.5416255394578561 0.21580707523365622 0.16670565145574912 0.033151815583927886 0.08962546763455279 -0.04650318875769114 0.3866630334763685 -0.09949739119617282 0.40224928631032303 0.2133825284827615 -0.3111020462426562 0.40591384607112885 -0.4166281065755107 0.3338175898476413 -0.199915790454218 0.304413222119221 0.3187227565911706 0.38461848171310636 0.5394602795644896 0.1472663057783823 -0.024434900169857367 0.3697002791173302 0.1731058348805562 0.6949510889024617 0.34609972653778553 0.9756109226078287 0.6401960566175797 0.8204574006118566 0.05493462420647544 0.5758486807338508 0.49178985727369046 -0.06292539311345781 0.021254435762409346 0.22080581648169656 -0.3629287471843551 -0.04444050749702086 -0.20855416916997846 -0.42230159888329166 -0.20874769559869819 -0.43797805826941805 -0.414569322721501 -0.2837949320822817 0.46171089439614205 0.049887518194275955 0.3584765314311724 -0.22012889904876579 -0.24689836110876437 0.11136333693787528 0.20865881836079622 -0.01106520342886196 0.6051082147502128 0.2113784329104872 0.6195879548978296 0.6502010923981534 0.15219147245167447 0.03732801417852017 0.578779088027156 0.014234315724219423 -0.4100919783512018 0.5435978625043659 -0.45216564858568964 0.1635818426826997 0.44304559842059776 -0.25494697270502503 -0.32344534002157277 -0.45287766570375476 -0.2534583074033716 -0.45433340011386647 0.1597845041521407 -0.41520176877355763 -0.005866258606438156 0.44146167377760875 0.17797339357833666 -0.003686453156828712 -0.22637258159564835 0.1248493129393239 0.07095023429933224 0.14293795137954948 0.050653673463893344 0.8832746482642081 0.4497846488213225 0.19462391453283598 0.3548029160333126 0.33430544797658635 0.5305934295283111 0.2928144778687477 0.362119093738834 -0.4782109118060419 -0.06157108814588183 0.0034888119007599194 -0.4210633731161327 -0.16581248992077538 0.25559397766637215 -0.3009229119088479 0.012825249299004044 -0.32542348125529175 -0.5017730717193184 -0.20256630094147612 0.5515975127253793 0.2980182055918377 0.3969459675228277 -0.09238753175500693 -0.34825485737731904 0.07743422851361409 -0.02189739495987137 0.4208143432096709 -0.08319768097539003 0.46985128074016 0.14876588246362382 0.3135981929546424 0.6687679562325298 0.3184358607170702 -0.034677655974036874 -0.04056332130131595 0.029181044429729436 0.2788128723556004 0.3552876692158648 0.4695744837375354 0.3120469193227503 -0.1924421042679654 0.23197884029642343 -0.032587329281429545 -0.2363392432482914 0.304355296911342 -0.5139906774977152 0.4512856928947136 -0.009796771741463492 0.14797967877003984 0.1294880678901123 0.34497184039670364 0.1852647748908839 0.15322471900173526 -0.34474262866314914 0.1284248178385118 -0.09632050687303866 0.7087594688093161 0.5067438454972937 0.6254715091779822 -0.11559782574480576 -0.23545873396810474 0.20777759481289207 -0.39870778067673446 -0.40972097386951684 -0.4585318497535547 0.3986686812410473 0.16220193155335202 -0.1436056216889213 -0.1682644492688825 -0.11126056521456355 0.1901382000963085 0.13641875211955581 -0.4436395753065431 -0.363149895157282 -0.41896410916193877 0.16718618706482044 0.2788832630873921 -0.23591828834713582 -0.47050395273367324 -0.35249545744978866 0.5667340352673896 -0.14973447871175014 0.3622920332688579 0.3445044843967435 0.3418978014824765 0.20288197034680203 0.0464418140449319 0.4261128348440616 0.3758621701853605 0.12926779783724357 0.03302528767608269 -0.4156449520959804 0.47403512137410087 0.14643038808280584 -0.30248861770223423 0.3918295870051771 0.1276251728885392 -0.03395598602399322 0.10716365736556074 0.09593399806163169 0.10353400427654291 -0.38041232229434385 -0.09109074046832696 0.46361279171519026 -0.2424364084573782 -0.13641374088014233 -0.07074941427996798 -0.024107676270698538 0.14396371605787692 0.5509287214494174 -0.1584549175871533 -0.12584610689756304 0.15425658357895244 0.8824498019438018 0.5673984994009186 0.08249192198626791 0.4263121600481004 0.3430747705118624 0.3435443064916471 0.3703869739360961 -0.3227926022799443 0.1440347307576055 -0.14897798472917848 0.24601624021238827 0.14261915079881693 0.09742692643385825 0.0059692740200059935 -0.4433648354794016 0.0156327044989989 0.6113620762613858 0.5430929031798596 -0.3702114298447277 -0.2404126396106771 -0.4147266356139215 0.14805574748733394 0.23104170993894055 -0.30841269361123497 0.045898691087359784 0.45454285246614895 0.5585449938898596 0.5034638809995188 0.5879162974003372 0.4340639701922653 0.07877471137946257 0.17775346364662192 0.15819499343812643 0.3169582580134714 0.03084874190830425 0.17937433217167456 -0.36449708734844716 -0.1102595728523422 -0.5441037098456212 -0.34804353293479495 0.14070427427912657 0.47288009806170767 -0.33719998497372156 0.013157855505519647 0.42833249367023685 -0.22091792508107572 0.13218650060352438 0.1444669962810323 0.06822911408334664 -0.46528174392346333 -0.30428380937430843 0.19218772297820505 -0.04894927306476266 -0.382906871794721 0.5948031936563605 0.027080963451215894 0.7434872837142441 0.14807577340942893 0.7672011886934386 0.006235132209837709 -0.18027145039498002 -0.42151429217106956 -0.26410142621955013 0.32807160174982675 0.4488324659835631 -0.20240231431616448 -0.12293631720570428 0.1452421582855469 0.33751414125060036 0.14225532327984589 0.09335835267589293 0.04748571950875519 0.32627775689250205 -0.41936616178960695 0.16479526871193909 -0.23601747271896073 0.15262765250644295 -0.6368261496141854 -0.08092233355494065 -0.11017514232474739 0.04779022127762395 -0.3224368262336636 0.4087272922287018 0.542929002899966 0.5606553072130621 0.5787554174896714 0.5618265441702345 0.5224383920470709 -0.17329585379090315 0.3161673972650631 -0.06382709840902567 -0.47225925045114575 -0.5166409007598984 -0.2751530406642675 0.27715933679988736 0.21538832854386608 0.2859932589348006 0.062245567678478775 0.020814420631539238 -0.22977679734719683 -0.02458944748677236 0.02580576646230699 -0.358678833376102 -0.30732139052427015 -0.03076013370643699 0.045111035498536366 0.35884418109683586 0.30289235639652257 0.07409820954138134 -0.006301151321328206 0.45599871280838633 0.7412554293386395 0.11833056199311161 0.39884928894355237 0.7730874086513462 0.1643556987013213 0.1576555450842473 0.04305213422141487 -0.40359076904758556 -0.3493524310522369 -0.29499281333145844 -0.596187470123322 -0.5122090149043643 0.39686477577290535 -0.10806882559550646 0.08357794444456867 -0.13131101400459802 0.47342984156938017 -0.10554669039165371 0.09094369909256297 0.4932153616331084 0.3349555130877691 -0.3985089835525209 0.20523293805602802 -0.17196823490205365 -0.1558472890134504 -0.4048478427091831 -0.37243337220497347 0.5344836835175906 0.4894857840917954 0.43684885951577823 0.7296330068257766 0.7311877609371696 -0.1262124105663265 0.0802243511691637 -0.43425663680508336 0.15081108088376574 -0.0697961445245793 0.21021783226553592 -0.5155379537819266 -0.49407599460775353 -0.16176289426393411 -0.13746996553601804 -0.14202383888639852 0.4557738021868467 -0.22002976953961448 -0.2058424150733282 0.3792406575363577 0.043041932171215214 0.248242305299072 -0.5163821735997667 -0.042660860621902136 -0.5597969099184232 -0.5083661195785281 0.36513083867552987 -0.33043472195697215 0.2757274325249104 0.38695621854068085 0.34734332626871517 0.9003528209514089 -0.022156878946180784 0.27606456393670176 0.4565834530732559 0.09125397273367446 0.3233760860086986 -0.7194478207474051 -0.325525669072367 -0.3945984441538832 0.1355716657170076 0.42108642462227797 -0.2101176125644605 0.2502561041065156 -0.1637124781261439 0.12296893891210903 -0.03377239351312586 0.5592511941582144 0.11372138280680687 -0.1624732941940249 -0.399994539486034 -0.3294055180855352 -0.3321187079128302 -0.3703861633226009 0.2687422161572223 0.03122882709465591 0.22808987513453094 0.0819574316117877 0.860139693349435 0.7232456611197061 -0.016034967658082665 0.2993391993467364 0.06291777018395592 -0.3996392257321225 -0.15335830111403723 -0.23038298341310318 -0.47175454554961416 0.2521470779506033 0.133006531194928 0.04161457880904003 -0.08283735591488398 -0.04659090271410928 0.20736289352169016 0.05989775936796693 -0.47736481906274186 -0.02365000378224233 0.26260656821439504 -0.08618313345416587 -0.4344155790318172 0.3167493804003829 -0.3451653066212581 -0.28355995876786344 -0.39864966923999606 -0.17297747772951508 0.48154277397641765 0.5006652453715995 0.20488762901516092 0.8779122295742142 0.7961752011058592 0.47640567701419245 -0.19803765969936007 -0.064673645936807 0.3944451360035698 0.12453487131784485 -0.6084712663748216 -0.6355406944528017 -0.23571996942000653 0.26484644560932546 -0.033270474903152 0.02588274451833227 -0.36493101635138686 0.19333688644141023 0.2641518768735173 -0.25520510690964826 0.22844040814282326 0.38323712967372847 -0.27887900730594856 0.07480748042435444 -0.17377193073507888 0.2871809793343656 0.054828308112474 0.1785272457719887 0.5860357062718873 0.37841163535741185 0.9150900684070417 0.5320927803332498 0.03408588316273104 0.3389282631494258 0.42382755847321274 -0.06671873886955176 0.34921217449093 0.3361654931283838 -0.284698987737536 0.38630205159275743 -0.5221321523421226 -0.4437219916894095 -0.4522249492716237 0.36171853858094805 0.11967883757724139 -0.3867301819585136 -0.23317240211678789 -0.10010214009535887 -0.5038708930301241 0.39220996208115644 0.3581266907533642 0.07702502426435398 0.4675686263309169 -0.12777097085756156 0.46720018514460365 0.19334559084809422 0.38835078497591125 0.15638205093757285 0.881927758304644 0.42496888873864974 -0.006119968474695697 -0.4101575074967179 0.10693826955398501 0.1474390011627949 0.24612043682220452 0.3526157474786838 -0.5094380190718197 0.20966685262805348 -0.4466586952936803 0.2780519021993593 0.21567953748523797 -0.034435426176305614 0.15979152666830734 -0.31677111153744686 -0.18320487403145755 0.18106599734763795 -0.0446812341035441 -0.13752664993106284 0.004217916270642984 0.3139591086225678 -0.11912951892991824 -0.31704930463994097 0.1622603679378567 0.42070217999521325 -0.09419280583940266 0.2398719893851219 0.14197198962696692 0.33636460224605025 0.30020399254452446 0.3042513851532306 0.17839134616327268 0.2003581309593728 -0.0826617785502543 0.29314638798525655 -0.08821994820322218 0.4537069007611066 0.0666967551144281 -0.39773100201435707 0.177198603957275 -0.21078500485602783 0.125822998485121 -0.5479267884898521 -0.4684182502055956 0.2635489170990965 -0.2640855467580836 0.3386893724499094 -0.20484815665648604 0.18396358404000254 0.2530961759895736 0.019554513218530394 -0.21260116996473333 -0.1473974322118216 -0.07755388126064577 0.30394640124072386 0.6531627904014449 0.9383277187952442 0.7913133520820909 0.4379337421510101 0.29483977905395375 0.14064140561420074 -0.21484992982504417 0.2647732058761792 0.0010928337639804775 -0.07467760643192992 -0.3919050820049568 -0.03156169508996394 -0.08893820081189005 0.3561141259119889 -0.04953073800530983 -0.20171431638417617 0.4393267397053472 -0.32926781403762245 -0.007359762188178287 -0.42839704436917125 0.24443539502693262 0.40837908952494834 -0.24044974961192186 0.3535533630967187 -0.12305811350525102 0.6853026652766459 0.731503112277485 0.8049067768414387 0.0180065556004545 0.962810357074026 0.7205790380389525 0.19531086459368746 0.5009594519443046 -0.19576988522907784 0.3665813200430109 -0.3824269767760933 0.09569121046106518 -0.10607367567535872 -0.4855039489508226 -0.3166106467879968 -0.5978420181648569 -0.09043511620876835 -0.3028741981741717 0.052268426637387705 -0.17224002303837158 -0.1668965566635336 0.27352148052250747 -0.37402082358781064 0.47330718305004504 0.3062993891910603 0.12810034957696448 0.14646818124931868 0.634550422353983 0.08383009603046296 0.07976005153163272 0.2395101699095381 0.7945782787001903 0.03467026672648332 0.5813710756039847 0.984041183045671 0.7329768131816541 0.20854910857870523 -0.41714759472672225 0.31219909161031884 0.13911104898703877 -0.47418174110980593 -0.41786335546902653 0.38928671257060427 0.11019442215779274 0.2852362204615065 0.3565710463046759 0.1315102665673173 0.0729935586311195 0.040760243530986895 -0.17446023855158224 -0.06083339777765591 0.2877416824000553 0.1523042881243324 0.5411600505967612 0.23133534175233963 0.46679190283389366 0.5608524189620052 0.5855822424710914 0.7026337730855163 0.23743346837480628 0.5123637775457907 0.10431551660503345 0.3712682021483604 0.42664550644542526 0.5528226498788679 0.725152903366524 0.28158335182543515 0.327796181535488 0.06912919451188135 0.20454280955007628 -0.3464097332308601 -0.17845955383927087 -0.030820480436340468 0.06394533313080049 -0.39481303430510545 -0.3093929064997178 -0.22286480174060658 0.501156086088326 -0.046448825691229705 0.22960718800157887 0.07941162377982947 0.5379958558387697 0.2646379462245786 0.20660961209470313 0.5111201509400024 -0.0009105300369398165 0.0076640326492253275 0.21906880910185778 0.03672136250082114 0.10802575413069138 0.3387878809949701 0.7886331789266412 0.5298250921321337 0.44047043937417796 0.16377184922441998 0.7322518778943017 0.1845366852218344 -0.12735732343796818 0.3823876229247308 -0.1364209871317112 0.07497477332272164 0.2450404006399822 0.6535856455727004 0.24974152470123548 0.4418413095466254 0.7403317207952618 -0.05481673257297887 0.16990850527087129 0.32687175254281653 0.3762236024155447 0.40193870223830586 0.9075742175307762 0.7140326444666675 0.6079052140907037 0.3093727178627821 0.8237903842212947 0.9550605114849889 0.8211982825502265 0.0015651051914729042 0.6363162895856005 0.05047297584271862 0.2551538577293613 0.052037775613846045 0.5919264488613043 0.6680251554811747 0.08245358533999322 0.3354589745808921 0.3919175231899693 0.2917226759284413 0.036224599324549515 0.3538180885164302 0.669510127170153 -0.018694671821417114 -0.020865832649107807 0.28092564400457526 0.9044517411746335 0.6452818647789424 0.6568928175627403 0.35833625156301596 0.5936607912085384 0.010131184027743378 0.6360960464095422 0.9132869475762367 
0.6125734683448192 0.873698593466345 0.7239730554660938 0.12055841640369025 0.9024533072858417 0.06644384435577488 0.5339674725477638 0.14213712379345766 0.011706610730904066 0.422034260127639 0.29504070765415624 0.486000493797603 0.5765144390012573 0.022288755879409494 0.10080340503220045 0.5577174009973999 0.34316735317265823 0.729173487549448 0.6522916485919397 0.8456043629899068 0.6924928266692253 0.42993107739014813 0.6729666223944324 0.2753811742554185 0.3063134987782127 0.7889851599207933 0.4464195164015822 0.7983803405183525 0.8224223736682784 0.8575623376612838 0.9166352358412073 0.43098522051329624 0.3188669536899725 0.582207420508939 0.3716280512303919 0.5994799308132499 0.669124187675505 0.6410806052765201 0.30816633935835447 0.09657031208920142 0.3807291869399129 0.0972816243876692 0.8220495796296485 0.2789829752379243 0.05029246501183417 -0.028537062207911457 0.6410574010388136 0.6350678587217753 0.3348011937870636 0.06942485445741672 0.4087915936789871 0.3113500339664799 0.6771206397350094 0.6057792494526903 0.36459372819754 0.2178925542549901 0.9880359661555919 0.45400162119611487 0.6882746557783281 0.1405530231047248 0.48559717368986743 0.023600389057843382 0.47048760693139896 0.8408896635051584 0.15841152061437766 -0.2941965377728425 -0.34358567849028004 0.005704829167914211 -0.2167283929363573 -0.3364599169814462 0.2835305599087835 -0.039749315993718184 -0.16093083546823783 0.5387517193829522 -0.15034321887193652 0.7715694657917568 0.21822786599469854 0.8746452751912853 0.6061030121518162 0.8171515784006727 0.9411374063389853 0.2626686724450676 0.961135485407593 0.38948189490242036 0.3855119047369223 0.3403871042545057 0.5414085570817915 0.15425657099720988 0.544940345982983 0.4601098438762012 0.549687143862528 0.4395998130045288 -0.042575060468653995 -0.20941571407025417 -0.2000347852530502 -1.8022324469848297 -1.934871382259455 -1.686753213523037 -0.18370880682342722 0.5080295231353372 0.10526410201122656 -0.0747890664287506 0.0837145974092406 -0.34257597191604766 -0.020519811184229565 0.3146900271808676 0.32609679261495167 0.32270990396132915 0.9324568838929987 0.8467757793037823 0.6239113251862987 0.5693773611822828 0.620660479824584 0.20131178930815355 0.3942300507159402 0.037950234571683346 0.4060006568865468 0.2752074060907933 -0.1829518146084108 0.4277370161731128 -1.1372959251973564 -1.2686970632504324 -1.4602892923200865 -1.1496145958340906 -1.933486809983442 -1.2676292497752792 -1.9720615351052462 -1.299343018753531 -0.22760799148497426 0.4444663628146849 0.47379158185028053 -0.26613661832668034 -0.0010378198972672767 0.4513047437742642 0.00988110204727449 0.52920678187009 0.3744273568100578 0.25207814924185595 0.24348798852635728 0.1987704378098033 0.7617981913776972 0.3865405068230279 0.5113647566321999 0.4680538862469401 0.3931573493842913 0.4363317196943747 0.5211041588369993 -0.04555002726864096 -1.1613399546156569 -1.2637875107407912 -1.4785497445340257 0.4392901264654243 -0.30393347313271113 -1.9975927662677408 -1.2418481940608688 -1.6667014751305764 -1.2543213272264682 0.3654832105765239 -0.4171778469222555 0.41851506409071937 -0.04532166693691697 0.024265718105755587 0.15418686732897957 0.44454990619450757 -0.4598656105617941 0.1580897102144225 0.5946363061191451 0.7204649194259338 0.692532431537108 0.13443601133337352 0.28990062585887255 0.28171379808676394 0.5258321391756523 -0.1492150340867216 -0.21063983492978855 -1.0479710548598837 -2.0129728898990473 -1.0442662542879595 0.1514561650334036 0.3343028233111268 -0.2828812665138773 -0.5548181102183736 0.07455102045898138 -1.3289278509065776 -1.3912550936070425 -0.418785108603226 0.20100199919022826 0.17595926413654747 0.07697204135293877 0.22578771061293604 0.36141239131939595 0.08043337218869327 -0.46248622765800473 -0.005787600295245369 -0.13134625907297412 0.38858650900493674 0.40613049719147526 0.05790011484724147 0.29552633697577396 -0.027932753951549108 0.4317797417181371 0.5319732256026406 -0.3733178612085114 -1.079233178912116 -1.5601338095203774 -1.7400911567021056 -0.4553809455490778 -0.029900890008332525 0.260587369840687 0.06803294121487374 -2.129470164767588 -2.156613928794869 -1.7838676927565218 -0.2926833629552745 -0.3965486296188756 -0.34770545377145284 0.19198598908258205 0.32914333199542783 -0.14776216786842253 0.32810629345249825 -0.1871592088762647 -0.009279024530180143 -0.06023313115690749 0.6085340291063757 0.9747690519261436 0.5628618115690347 0.2374374561691855 0.3749357749187839 -0.3291323463131347 0.45200009129393975 0.012751996558420355 -0.04125526897021807 -1.4739914234408 -1.4533689017381355 -0.4240854709077891 0.21917455905993574 -0.2846213230007743 -1.4571079366980264 -1.329668570821945 -1.4123361821649443 -0.04772625511819802 -0.07867380198987445 -0.4718886163575434 0.16407369186480988 -0.3193753078554713 -0.09408340763824716 -0.3049890318340846 -0.41689182418252513 0.031228207388780294 -0.47230967439151406 0.41258119757735745 0.2692510828850019 -0.001797445478957758 0.45525942499760996 -0.09862825390900037 -0.0642490529087955 0.25713463197783215 -0.399993583171827 0.3678563622819168 -0.5038567851754738 -1.89705443136329 -1.330324479325408 -1.7437588462828282 -0.38615029191176425 -1.7406183578719094 -1.8897944920875864 -1.3762770479983673 -0.2597421433061466 0.25067387509116695 0.37480810807064247 -0.11470049475316789 0.33638741869475997 -0.23162009402844058 0.3460918110122009 -0.529066900119638 0.04029153695367211 -0.06783550796068084 -0.1443285996137634 0.3214788394439015 0.6508456815473452 0.0014018159410358374 0.10809681777180606 0.554782606153343 0.33779752979501343 0.50446122494902 0.28683903361477053 0.393234824300595 0.09390619234914527 -1.836968573615929 -2.0170006008455914 -1.3191958167671318 -1.4350307897835852 -2.109567969471935 -1.807598134748675 0.3284034434725978 -0.02835397886324581 -0.01987652881532643 -0.014974234344026041 -0.2858236786436093 -0.09275535104418303 -0.22566687926184856 -0.5777985131321105 0.09806920690418086 -0.22805240275297892 0.21774751289132194 0.3300591456713717 -0.023298657823024482 0.6081320761602689 0.4705512612770333 0.8236735010396596 0.04657877224682088 0.34865915322736163 0.12152389698463252 -0.2543236370463124 -0.49081361619056896 0.026805873391615928 0.13062113096190864 -1.8195064209615706 -1.4801468743332618 -1.7512459812923622 -1.4498822364645298 -0.46967382568218363 0.2599684051012869 -0.2959544109028837 -0.15421679072606523 -0.489428316784043 -0.3898564784267048 -0.06446515949896411 -0.2712987034089008 0.23056313157135952 -0.6464344535225187 -0.24497056363595002 -0.35548106164100407 -0.4669577448381058 -0.0891211833024634 0.4032667503988372 0.49134813493896945 0.363044214979201 0.3845247532579077 0.2803220247541081 -0.4756406863534616 -0.12024034664933604 0.3544770752046861 -0.07143306782614027 -1.4275426031805099 -1.8459785821097179 -1.3832856476034443 -1.343046692327 -1.6429398715847885 -1.265809532610642 -0.5701083777647649 -0.6455483172113387 0.22802397576155206 0.2701625743641685 -0.4118443912163855 -0.3381492536779977 -0.5777084003404119 -0.34179573203293656 0.18107954056681805 -0.01814400818538654 -0.25429137285171954 -0.07184192429268035 -0.20509273139023126 0.2800864531936494 0.6464565744157265 0.9575667459140013 0.7610733612146994 -0.22366935369240526 0.45667892716319114 0.2567510122215484 0.2001840351073702 -0.13147038879964132 -1.7120310073000808 -1.839945870711121 -0.45880264512269436 -0.3345624836443767 -1.9248979838896703 -1.8136304674650998 -1.5027249697729763 -0.11964797818613361 -0.5016340647757818 0.41064482091887333 0.3998633670423136 0.2411402831793547 0.4342837009295385 0.026652916030614877 0.48028280935141315 -0.41656134153267615 -0.14353283967488667 -0.22298916659909165 0.001530257151017538 0.09692246140124819 0.6224196954824159 0.7738629237220828 0.5301901236407703 -0.04085744555027927 0.40275776578347827 0.10894429827567376 -0.15575081596893534 -1.4576011864377851 -1.7769822968565376 -1.7130713500374612 0.3887260660191673 -0.18912013615650602 -0.09445604951521862 -1.2908474397417864 -1.3902560478587693 -1.9839265561198107 -0.3015380118195764 -0.45826472115708544 0.1585385210555025 -0.023363505982200532 -0.3319261119506716 0.523974969432101 0.08972461222130004 -0.229514999746773 0.05753100833780888 0.23678047913572786 -0.12514448866345204 0.267683848083246 0.8069674731417558 0.4595670822943708 0.522174808127233 0.1731515087619421 -0.48314718226148645 -0.36805424217398264 -0.06868548115685051 -1.8463883769022975 -2.012382970184346 0.3745098795299552 0.47849253558485605 0.2871680429256704 0.2887241057161967 -0.2817465490467202 -1.0094832298654366 -1.7457212487633598 -1.0108132273870247 0.5958257574163748 0.30812372282788564 0.5174054061310718 0.09623083692898929 -0.1440871999848806 -0.006597812508243606 0.18870197577238831 -0.36034768242702314 0.17965162493144743 0.7161871046823782 0.1645435740155741 0.7925951162990862 0.9081034518786851 0.902875934810548 0.5826033441769412 -0.009271476818263293 0.5271689442061767 0.2336738141181177 -1.895675480699103 -1.55635008622881 0.2418270199731813 -0.24708791267163002 0.0878777208400508 0.1406551480217535 -0.29290157376203463 0.2566056503409307 -1.0626916391476438 -1.4666240323383504 -0.40336719378492253 -0.4087855491905356 -0.050345666664613556 0.4800935946536855 -0.20319236396978255 0.16001871966356135 -0.27113544459129585 -0.1545349454181352 0.35296661897035075 0.42674196905303474 0.0608920698034474 0.4287020209864336 0.029527953897651234 0.4023406994597179 0.25128277281989214 -0.40530955704853994 -0.191866150756549 -1.6378092136765274 -1.1320069519390827 0.5429403507907504 -0.47007930713096846 0.23020473451179052 -0.10755411873398671 -0.02383188260054287 0.4268683564353619 0.6569022743024214 -0.8942472218832852 -1.4490536591806435 -1.656883136722384 0.317704734993588 -0.22823139738797216 0.09607122440150723 -0.11830584749595222 0.14349641185944775 -0.20633683192257943 -0.27886651256474126 0.45077401902197795 -0.18032129849775175 0.4864579295512537 0.22085242587511603 0.03898726323774081 -0.04263849226289459 -0.22983171592104906 0.3652107789268438 -0.29092243843331606 -1.1244668459034457 -1.475603274221384 -0.0752221774484335 0.04228819373902289 0.007889515369101836 0.3511375698793695 -0.009445833833256905 0.14288828218115848 0.6194221991125402 0.5630524776423721 -1.1032085012516806 -1.6057206819031409 0.34832304595598645 -0.03386788104838273 -0.006972236834065976 -0.26075017103697185 0.13912005690554516 -0.23202618403202596 -0.12383765344924705 0.417879047049427 -0.012540844408356188 0.05127069129376731 0.0690075926128158 0.9398019582009014 0.3913784542018376 0.03949183002442913 0.3712565155722989 0.33622023241869076 -1.7467118118076113 -1.3855926061368007 0.23665819054144324 0.18874708031915863 -0.2644924913801092 0.5613003833483068 0.2165578411204999 0.011825800113625294 0.08809808288898689 -0.371239296890507 -1.8852814034565437 -1.2976640779648811 -0.48661325712648723 -0.0703701327068182 0.06388150495089494 -0.38371706671303984 0.47955406002910533 -0.2642446313753823 -0.1834942712530631 -0.16058469877843293 -0.016097899784741125 -0.009306887164338853 0.7293447940879964 0.964016223568322 0.06745211236741445 0.24051744949872664 0.23456291738781593 0.3435406214830032 -1.6852208670940918 -1.8161514511827468 -1.7927484421951014 0.2688979699470708 0.42245307959654743 -0.1397708948423241 0.006092675429671152 0.5101989318130368 0.4306921481516607 0.5280178422290458 -1.2262577451760968 -1.6040311753447278 0.17058678493660306 0.18222113148640967 -0.43418485053763634 0.010692079755833217 0.24036520472998885 -0.29556467394135183 0.255618162229958 0.1968529630055493 0.7724184372662666 0.04243080255395663 0.26532613753742296 0.5906156239237474 0.15619219731497677 0.28047788703123633 0.25328184214411076 -0.4092191978165085 -0.08470882523369751 -1.6416601414012266 -1.7378696093883632 0.3887180622882988 0.33234240722363617 0.26390758130717445 0.3128074876839451 -0.028106100496178236 0.41376518386669336 -1.3464585072713946 -1.3087750425874136 -1.155095163378375 -0.16763454352577614 0.29577620134845994 -0.32850253344167163 -0.14296560001461942 -0.09931190011404492 0.5116583789195361 0.36283434521019203 0.3600595793608151 0.6257753688430586 0.5620727944025711 0.947090667091039 0.496241372707825 0.3048001237334307 -0.15606345734808919 0.29456800502192354 0.18226044335497474 -0.17539198345229962 -2.178407471185005 -1.375944658934501 -2.1712803548141646 0.10438819842476499 0.37177555565014236 -0.22349150151146763 -0.4065586933226498 -1.5058994922819515 -1.3420948269420132 -1.5464970466396386 0.46015295117480054 -0.4112786925859163 -0.00015622567386868743 0.21635902464918677 0.3591565479450161 -0.31684225097628876 0.30613937174583916 0.1515847427001485 0.17782927008125393 0.10910542758791716 0.8652957589089125 0.15727320817971535 0.30978785920909924 0.282577461613756 0.7628919284867551 0.35825220259224594 0.3317957250574423 -0.25187427619895947 0.1024314899670474 -1.564731372039597 -1.391376404499457 -1.3237148928316018 -2.20858608161868 -1.5946450272562347 -2.1397333184324943 -1.6778006294755565 -1.9168809253563477 -0.3388295955237074 -0.24378892051461623 0.06915295663840967 -0.13207439824267347 0.2980343928003587 -0.14653626153004634 -0.4620030294934943 0.3346683130651876 0.029542972975537065 0.33120807522939383 0.6850542948209445 0.332456157148712 0.056585656146715624 0.3739210470128136 0.942903881620381 0.6315397865534187 0.5670493964816757 0.3425957606457359 -0.2752177281029534 -0.11794550565912056 0.2382135935221242 -2.0427309909159455 -1.8433470645490286 -1.8706202403473235 -1.7433561137859932 -1.1685381873531309 -2.071094855320178 -0.05701390980815085 -0.39214477774855383 0.5121842026339526 -0.42291268317475195 -0.12850750381443424 0.22509452127461507 0.234525688831885 0.06752126957132643 0.1315137008462503 0.26908220357681356 0.2015762109361902 0.19996645332481694 0.48303969755889 0.2685337560676073 0.2874616648972501 0.656773915891506 0.9617918131496255 0.5653003265295452 0.002563158782481402 -0.14173212141818672 0.60230868938385 -0.18320174786012072 -0.4330279400907172 0.06308131571716358 0.11353186842449976 0.12365585496436544 -0.20830275484935737 -0.46851793259397045 0.4651240168939813 -0.24846436383554776 0.15855927243579598 0.2271039290200527 0.2075696953546921 0.03637050945631419 0.13726634378590027 0.5210030798138925 0.840881739167591 0.9440107923347595 0.10084892287131089 0.1491722211259239 0.9447362587830797 0.7365352283347926 0.8829938248297731 0.20263263413534316 0.5874858296871205 0.6909779539073263 0.6474510421062023 0.3478504560905819 -0.10526583112037083 0.3924085520015884 0.04694510967304148 0.24153744887530765 0.7251552631956575 0.14451942596952985 0.5715943838289294 -0.06757395476388417 0.4673168987801792 0.7561158201054607 -0.12853290962048167 -0.21418698839543307 0.2645638859921031 -0.00996670958165821 0.6796426061003906 0.872327175728702 0.42531429955876404 0.2585348906465881 0.43440331900649204 0.723447817850001 0.009054161580370979 0.5894539894846972 0.6132916848873791 0.6376882468959355 0.2420220799808772 0.7139932338003575 0.09089637644282905 0.19718179944724487 0.8697108281201723 0.7278726792937138 -0.0011795975363508822 0.22270803707688108 0.17459479868901093 0.21684701428807832 0.1832936663437996 -0.009106643774753096 0.40510352428860397 0.667339383953795 0.5358122072488848 0.5939261629926805 0.023961602283405155 0.9224377092124629 0.819044539467806 0.7868106853671863 0.820166093167885 0.9327105081327614 0.5442539661136977 0.2002820178676259 0.6167836078525412 
0.742881493667939 0.7379173933540254 0.5214490241668801 0.06845871933357806 0.3711129384301278 0.9207666084633573 0.584448909757426 0.5383319432557134 0.2688535143821935 0.3684489199165789 0.8953460891531693 0.6664630475268357 0.7871648828819627 0.4284245133613905 0.6019434970486267 0.24720428693473465 0.7054608302834863 0.4276013337033373 0.4425455148147456 0.6493223245768817 0.9362806214689267 0.06400634660862092 0.8247432373470076 0.2923831104121931 0.4439194545063778 0.021913328775008956 0.30104607783431303 0.5026312426301305 0.05617607734743901 0.49109572938316515 0.9271106288584273 0.10539321810780522 0.7644415469591184 0.4097202185629783 0.6579819686928771 0.2631213401482307 0.1149670768370034 0.09670834520718635 -0.02133731668627331 0.09123548784136472 0.6089957688717659 0.8300728945907433 0.7297746333786054 0.6053787048869935 -0.01433556416460839 0.22795822940053942 0.3075239921782601 0.2508244130474617 0.5111316768487104 0.535716942911448 0.3581270547455024 0.35406075006911286 0.8285555979060814 0.7892928483196856 0.30779583168074565 0.9137884438732593 0.952815017002506 0.32674254203004083 0.3544254849874719 0.5056341455678152 0.9411339013764609 0.8702581457291984 0.053373976725941186 0.22738527081631693 0.2492662590150911 0.04581262844551438 -0.31693970186504766 0.34324746312578297 0.17846055936774405 0.3602306156631564 0.09807722478351626 -0.03080569008482363 -0.2803826467684956 -0.0073576333328125385 -0.3371598449167745 0.2919466163808538 -0.08988982748940964 0.6650364936581205 0.22757970685608492 0.09975522730235739 0.10467268282598388 -0.033517244117106874 0.7187396178535302 0.7324010490583791 0.5149333499132595 0.1613628010553837 0.08355548639625882 0.019221869076457485 0.15309385512090368 0.7771294743653864 -0.05589251697342749 -0.1880288587291159 -0.5417733098886592 -0.472923886424009 -0.10686503188362241 0.032264042912352214 -0.2966104691923581 -0.6501167589954061 -0.2849168107124585 -0.4432964150330781 -0.47675483981860867 0.42452385341435106 -0.15609116297071762 -0.20813750737199238 -0.3296704498977933 -0.1343495787569305 0.3056507836868559 0.5761805408742285 0.6117353739565662 0.1279214439531298 0.5000453580290353 0.41195809503410197 0.8705269662693842 0.6314209436230093 0.5314830988166908 0.11203856791850036 0.4993061773688082 -0.2641828584976182 -0.2261309922451296 -0.5611072804799209 0.09331007575893804 -0.30253030605843045 -0.0737347468837683 0.4356464387194434 -0.41827211387474594 -0.057421565512343786 -0.13911591427753478 -0.33493174927250124 0.4012443401623948 -0.3004951373572 0.01810628622437189 0.13606462471392167 -0.020765876661171644 -0.07633773367015172 -0.33386970463665805 -0.419248948170069 0.45520557367144504 0.3882540991460418 0.7896649512653985 0.8161294492286195 0.8433261677878832 0.48509465997954015 0.3339226581036534 0.7592190175243287 0.18916997586825263 -0.39946763655272566 0.27376541900563356 0.34415445325341254 -0.020155756365224042 -0.4257828922165018 -0.09822981707560774 0.17628034831362346 0.3249305947095646 -0.3582173563409553 -0.3014026498676179 0.5333817532991925 0.08360864326351386 0.2223955124741859 0.648125397062706 -0.2627046453009825 0.08882771215275005 -0.5241502706339213 -0.15800556132732996 0.22144068638184353 -0.1285777117616925 0.6289159888844081 0.4538470697693206 0.3177644175103998 0.22011132590475313 0.3505225494853617 0.3505978501949048 -0.045004828844407055 -0.01550165797052029 -0.08048846794696451 0.25899453276051393 0.19413747126196146 0.2476049165069728 -0.4687521903560956 -0.3049033931883597 0.07115898743431043 -0.20917199351324725 -0.4904608088848747 0.20132810310069726 0.24500085468158683 0.07164400919436831 -0.350530949146236 0.48236176326915486 0.23338756794624757 0.23532798190966303 0.15070755903813327 0.35410426741294626 -0.026079493476906555 -0.47339804690121734 0.11678833894433575 0.38657393058520195 0.7200484991074206 0.16785326056862632 0.17685634411524023 0.7837479662299311 0.5151107726635539 0.3756463722898347 0.2437908616939812 0.12672400144109994 0.19309186643978 0.342508304209177 0.09436292320953232 0.04613385776147799 -0.5799034597903643 -0.22307691369386742 0.0544355285325104 -0.27967036331349127 -0.3495689197099272 -0.23951244937069538 -0.23666817700987788 -0.23804843524490935 -0.04545829840580203 0.2363962052469687 -0.1792050736819066 -0.29499676686715215 -0.44378100396514925 0.17156901889934248 -0.15296674330342688 0.5032004331640282 0.6236500289018732 0.7880980521368338 0.18362513213396248 0.4578019269711792 -0.17991000944217495 0.29271108076483376 0.09213133422778023 -0.1903363175039531 -0.2323059556619232 -0.3329795818827799 0.14912997777164458 -0.4019156766371046 -0.12063004465214487 -0.44377019143460633 -0.07608548750705602 0.31725564075329554 0.2093422838369022 0.21986990576127796 -0.3689667501494116 -0.45564772385989505 0.11732147795882092 -0.3683430690515434 -0.2499150245617832 -0.4477947728798427 -0.167943316407985 -0.5233055598858466 0.31587016901354503 -0.12137432229349347 0.505915573292401 0.03427454570404192 0.5474096666065252 0.046519912875324844 0.3556982098206473 0.2458190985443457 -0.24085681730921982 0.46252928273976257 0.5212237256651632 0.21781310718351768 0.2808217284414632 -0.36231895619413634 -0.06160693791416988 -0.7007071619150054 -0.6039880292956153 0.29140513573233484 -0.20242971813152355 0.15079032764933387 0.269931411004044 0.26945725217764316 0.4117461224311296 -0.49928691986517765 -0.677307295508771 -0.062403738467758596 -0.3201335522289767 -0.4481027730174191 -0.19696197362578577 0.44649038935218 0.5078667715611971 0.3051092582119355 0.5306328396463121 -0.06713004308806568 -0.5286790235464783 0.09810406179326217 0.05537679965272885 0.24444294003939165 -0.48347647705217284 0.3029558923366152 0.0006325297195630131 -0.07904054636213054 0.03224351880876647 0.09411871896335977 -0.054674720936833676 -0.05226884843910453 0.269939691865565 0.17757479029308706 -0.15047138859636733 0.09773752908855532 -0.1706512116567284 -0.560302468531596 -0.1529100932220506 0.40102469165713917 0.46622643975256367 -0.19944179180975813 -0.026963457676158382 -0.039291755923765846 0.9422752868976033 0.9774454433697692 0.5311351211689292 0.46856024622164894 0.15154495609118274 -0.11155104530939937 -0.5876540661403575 -0.14363201986892923 0.13147791554844399 0.07945642526096389 -0.23714397803397047 0.3409643618094206 -0.40511868163010145 0.03822099740525303 0.19148807826048272 0.17818226630294393 -0.08380053686881371 -0.5746871678100943 -0.7030237380824707 -0.01005890285917855 -0.2743335978796079 -0.5898928201419468 -0.03771026204687886 -0.0971560524898473 0.18273784467325713 0.1665276022898339 -0.349211755069918 -0.20236560931711717 0.7682349988157117 0.606055435198564 0.6121748604104171 0.5362317906714736 0.2621806986393961 0.2736018218821945 -0.14260231038478943 -0.06556062588799477 -0.13573357918735185 -0.4153679916601395 -0.024417747732321526 -0.2874273518186654 0.43673476010957446 0.24685471497389821 0.39309507386840425 0.052612638170060184 -0.6721569642836627 -0.7552002786563936 -0.37209476344490494 -0.7108918846762255 -0.29501373912258977 -0.01875213263438171 0.0886974805795898 0.17915139023883941 -0.20315052574789985 0.2625520905183808 0.39167566437834045 -0.03363008209813653 0.7144385383521245 0.2865162731427267 0.7591839390423787 0.8095976377095127 -0.38513392030052085 0.2985320726960601 0.024010446016221907 0.4083113323046054 -0.1250642975899608 0.29784387870558404 -0.5046866009824286 -0.1742647113237899 -0.3720687117838377 0.7093765250964772 0.5286754264525811 0.4535394198309273 0.37068948524428186 -0.5338398117415744 -0.42763908728953687 -0.7469133666609257 -0.6601784578321125 -0.6646943457808305 -0.25109842950879346 -0.16522050071889388 -0.3182387830833811 -0.3787899091722675 -0.39410447197442655 0.7259314730140844 0.7014140064222623 0.9677475490622934 0.4194619406689795 0.16344981953499155 0.46812669211403624 -0.23502481307475737 -0.3264561320539586 -0.3558847976639829 -0.4868768946255335 -0.24226081545391176 -0.11135127962423841 0.2059232328588338 -0.2949744133998406 -0.0807608191850522 0.5114514869579389 -0.23382670858987176 -0.18389004847467655 0.21768458121170958 -0.5315465996951939 -0.6481843160734996 -0.4191698424358221 -0.5203298578517768 0.05157954684197761 0.3315690434010683 -0.33406069403833605 0.07832950202869961 -0.06150404524381265 -0.1291786798696227 0.6142371327864652 0.2736358612254878 0.4881474518709738 0.026792481885091222 0.062414139322869745 -0.37890483128033675 0.2027007367583515 -0.5065043686407918 -0.09580475722692816 -0.109840153100216 0.2505150340661376 0.10717979195063969 0.259214925813166 0.43473155935980234 0.5152280750090731 -0.05625292211920441 -0.025624815319632344 0.09059128045649761 0.19597534000314026 0.17109373293499203 -0.4901062903616564 -0.5938073519215408 -0.004833635454144624 0.2606718492173236 0.05772969620919518 -0.014462704684348278 0.24841581332743431 -0.006321100444087764 0.823994090114688 0.4068048009466722 0.3292589973420843 0.3975143930134652 0.2583649223977553 -0.5050871918746914 -0.26801866099005284 0.39724937719039893 -0.3850115375699512 0.011927647965353227 0.047391856769560786 0.0367323720518825 0.1898952814134985 -0.20071332630893923 0.08488718277865975 -0.13315144493798048 -0.019717884124085316 -0.6413641409742926 -0.21049979866628132 -0.6163712072004792 -0.4510992098771837 -0.45889527371894195 -0.29485868357328743 0.3627206958198354 -0.25299800292244135 0.34367645993062695 0.2833023566474579 0.15419377614637872 0.09525578383121318 0.37454824337958126 0.7983520324318852 0.26200338013838603 -0.43785547204992004 -0.03766313928118661 0.372844098546453 0.35007826736733905 -0.34818457083872767 0.1590912621913219 -0.3049228166809988 -0.28458739828682056 0.3774277945753959 -0.3045893496182455 -0.4144272765349632 -0.7079802518404295 0.12407627349080785 0.08052036963076722 0.028265373729472465 -0.02339715104175202 -0.5046992412104231 -0.021078909208571087 -0.049321805452697653 -0.3234342633489176 0.04166540173198467 0.3249828006188299 -0.6188805887007175 -0.10405067268839954 0.18227540705774056 0.2381366535423129 0.9085707557568979 0.36130949489954495 -0.04330507016590433 0.2271177337591046 -0.3768589224804517 0.030453767636289653 -0.045615681974110256 0.09679483702768628 0.5223598870553623 0.34487691587368957 -0.13006723735004996 0.20227749011037166 -0.46993639832944767 -0.6841711910546171 -0.446514730156855 -0.20258500324293255 -0.13174889871713724 -0.010862006263045532 0.27476576064199504 0.08426489833438544 0.2033202481659168 -0.24168133980267906 -0.3934038105418486 -0.04131369239831047 -0.1685623658064131 0.5316887993546697 0.13244307573750566 0.024971662117048456 0.448375007354265 0.0765598835442204 -0.4170935039427923 0.2814493868445537 -0.24629486776365045 0.253815018389242 -0.09081263675672069 -0.23766931582728015 0.0565873530315326 0.4514736169672613 -0.04269894295924679 0.19525939283846094 -0.4115420289401559 0.2080637449863964 -0.28774073824740964 0.05067758056872043 -0.06602515059883707 0.31483693543323277 -0.01753359699084224 -0.2469012889196937 -0.21114628098375143 0.46711481716246656 -0.02448195739949642 0.1270708023590358 -0.41553585809924554 -0.0016152461947092664 0.014790891750729696 0.9614923245741122 0.6661494412292843 0.7136629169006401 -0.2855519132485968 0.07615288006331819 0.32115579274790745 0.028785458877877174 0.511517654135909 0.6191596388751234 0.6136573654241463 0.40345135481965855 -0.05822188928351792 -0.10377070098192301 0.5467110897778842 -0.3866182269483827 0.135106189886663 0.1974352673714322 0.10796402980914105 0.6271669037304545 -0.04864642014819018 0.005952124845707739 -0.308754862932458 0.04397486579051461 -0.28771843884319337 -0.3847955135467533 0.27868956033869546 0.674449168118995 0.18573379059278242 0.3725089315602772 0.9123867216542764 -0.13588683584428535 -0.4780520065871306 -0.39868867144663084 0.2179951173148835 -0.137894190359973 0.5570297852570881 0.03525313380110073 0.15660357308346903 -0.09435877225020359 0.15475410339723658 0.34439063842734297 0.3694460554624246 0.2431569257809948 0.09591201693134582 0.3815655524298977 0.42240776692431403 0.35987316950089926 -0.37509343829167086 -0.42640489314247493 -0.2297718618074278 0.1802608167901466 -0.20293280198474783 -0.2978833165042264 0.3909982275340084 0.7554756337944342 0.9091752640535858 0.31387807652162575 0.6911189878854412 0.16583541052271636 -0.23114194914659492 -0.4111291047193775 -0.17404346167218152 0.08497429849990086 0.2768656051176076 -0.4639277352344743 0.20050685446731284 0.16959462762138913 -0.07415312439410857 -0.12431825149727842 -0.2506566080018284 0.011740236892543943 -0.10525084566930526 -0.2207028309441934 -0.23853273289932167 0.1527404638210368 0.39248411180409276 -0.23142230398965272 0.13545121103675883 0.01522006825804641 0.27100527547107073 0.24957759312135072 0.2558074205325916 0.6318989959280281 0.898386466584035 0.3995187845869348 0.32679470585777737 0.005070738639729614 0.6856347805121129 0.3856335168776456 -0.4454549021678751 0.05101257726446437 -0.021030919785230515 -0.46494050400468756 0.36224674421055036 -0.39092877247492996 -0.5685795810098294 -0.09097442939784373 0.1527764698026825 -0.6237603717162543 0.1929795848449882 0.04955393949098697 -0.3924297409406998 -0.3844877330414222 0.02580393022777486 -0.2774037107379602 0.2218122276618667 0.11497783984393853 0.3951918105822006 -0.0974309613725473 0.8264221944668377 0.4314211718457307 0.3475187953137546 0.05034952696935324 0.05276525785960262 0.689693598913427 0.43890523266483916 0.05179959615568737 0.17389623178549274 -0.40489032912983336 -0.13191112462919757 -0.24890442882508476 0.09267533453909085 0.1450633843777081 -0.2790371701370217 -0.4280770306330166 -0.37382839765875786 0.20742515212548107 -0.24718725561709387 -0.35826494579092705 -0.42075467031488184 -0.18393791330146037 -0.19343124174822227 0.1794495318252626 -0.39542793103316615 -0.09262443393861286 0.5339102193801861 0.6416203217316869 0.2922933007093062 0.4516095764819624 0.3032858908492829 0.9325548784193121 0.11864376574158031 0.9339546517995453 0.6570569965335858 0.40639385096878666 -0.17166037187948419 0.1024606913398022 -0.0693970852766695 -0.4261789782826326 0.052300771856112475 0.3592645236753374 -0.04998083605053692 0.1048098582348161 -0.4941064768027217 -0.18030071931686847 -0.5051684584839229 0.0005892354888120933 0.2493304656610897 2.7445608801276182e-05 -0.4552874374904493 -0.01505051907899553 0.3670376129482673 0.28995335253031856 0.815170639380434 0.817801514987155 0.6050562982824802 0.36547759855994594 0.25533637376324414 0.10587431821312931 0.35489768348655404 0.4131725172077195 0.6755745753951349 0.6298563062063044 -0.007467918545495712 0.27084819268939025 -0.015422692429957668 -0.13362771722153272 0.5225130759532499 -0.2622189194876743 0.10750560221839163 -0.1466664303379963 0.5213357214091714 0.20277131206762092 -0.06225411339997645 0.17555799441315528 0.3651548760910908 0.5874746570851128 -0.05877349206773243 0.7199921739879577 0.823583536202206 0.8389802070994088 0.6204495305258153 0.6297891223167925 0.4032106331834843 0.7523978823037879 0.5312940183509319 0.6774380712282945 0.42845790384879545 0.7314964640431391 0.8244715176045491 0.14629379839520948 0.8319698736644551 0.5365396554422858 0.8334887719856636 0.4134548731310835 0.3505301604226026 0.8672037570780255 0.18252363978582578 0.7535179426380886 0.372771735755276 0.39334460572017105 0.21984475753972027 0.4557062003697231 0.19292815087033827 -0.11785733871620917 0.15168617902673803 -0.05656535720494933 0.9374119478003172 0.9267325975475186 0.38857648795319566 0.728370854339646 0.345806098410425 0.671093157085976 0.8054300430459791 
0.9467562446922407 0.400212275849672 0.7832979829560477 0.2659284506321188 0.9903323037936483 0.025769598764351143 0.603528806501121 0.6595059816513271 0.6880455570741288 0.12038757878908901 0.9385297834731304 0.1811832790500828 0.6205488015641307 0.1965244683213143 0.2834865584432929 0.5454697975859215 0.4171934185645765 0.1602256009765063 0.1709364024208483 0.41814478816279965 0.7572829782755007 0.8979646468477885 0.08412766225938284 0.39310390755940106 0.10024556372287663 0.016592480632597884 0.6617186826439566 0.6024494419665878 0.1630191138148862 0.2338128330930641 0.02370775364451838 0.8349472056944037 0.9746889691424698 0.1353872069257206 0.22767189005506688 0.8571223515008203 0.8817245981730639 0.36696137724225963 -0.023655186278365558 -0.040547526514292526 0.5038711615667362 0.33281419643215976 -0.04423239654416618 0.513819230672625 -0.09629448743088825 0.7288273600102407 0.2978216406145259 0.032706579889047654 0.5779080504591063 0.39053006153651687 0.9694175632908738 0.5440667352789891 0.2752391810370083 0.7094388646339748 0.27149200254271133 0.9042432914075651 0.37472197050737643 0.5498685627762052 0.05056954582838276 0.42612109226999834 0.832360855840875 0.801262128480241 0.18280709265039993 0.09498854360801899 0.577618945260505 0.5826033363712341 -0.3035148492847782 0.040360895386033005 -0.07253948565708351 0.4840530743599213 -0.2919677561979854 -0.1831073203303014 0.39085447686039826 -0.23286230976995345 0.29871116710196344 0.3319921122674741 0.31091220438899275 0.3417467893194609 0.5016147620059621 0.1368020734974694 0.5291954874380319 0.7825398510849391 0.760160929790159 0.15389990469377368 0.1492494697414739 0.2681743677449133 0.3610668854435985 0.4084698304798331 0.6692156527650791 -0.02512406779341466 -0.17966394218047077 0.0007637542476119332 0.20878755754349246 -0.34343571287404084 0.12917327403406212 -0.323548796562265 0.2973655501247505 0.394763533178236 -0.09731581585139235 -0.17381830840435994 -0.005455442615442539 -0.2684497769540519 0.21846159308535953 0.39031125994667937 0.27791374417970083 0.5768919450835854 0.1892208298337583 0.038172163058245105 0.6551959941266442 0.32922242645398897 0.6706750481899579 0.27064394198176567 0.08122963480667267 0.9925813649378543 0.1555220993847632 0.9863679939555448 0.9058665328954404 0.5296647697384933 0.25733623828633695 0.05395292572721037 0.2952529577017343 -0.2525083695200354 -0.08285304043688593 0.04728841581412746 -0.09839513022732552 -0.044239255769940866 -0.1576713489266243 -0.010286317606527956 0.34541990760116015 -0.27846530992606855 0.3902288135728538 0.19638122165355415 0.41669048752585613 0.12455054359613357 0.3056450264480135 -0.31564722107953164 0.6142975323080079 -0.06832663630629535 0.8555008671587284 0.9875390630255798 0.2940674621767778 0.21031855628579366 0.76548868889812 0.22798817212096947 0.6772394936033371 -0.3176477697702792 -0.33196544496189 0.5113408735036802 0.13334655093069153 0.2714585272552915 -0.2659652344582145 0.2760733450665995 0.2225341387593304 0.11881012685742212 0.06911239957218901 -0.06214155308604272 -0.22597102702118285 -0.3135040806137299 0.17727262097442137 -0.33901474893783223 0.22846714932040948 -0.18949449339737606 0.14797098383368373 0.2970545226844867 -0.20462900530075853 -0.20827675760324454 0.05518519440014487 0.6031450260198945 0.8494464062257355 0.04499773837636365 0.7231659960280977 0.2649326495660521 0.19200254504861622 0.48232363058559913 -0.11465159335872098 -0.09421720677977871 -0.557284178427846 -0.4816264164768368 -0.23813110979219443 -0.28270480622361666 0.26702408636763825 -0.02666593840765639 -0.003373389457212872 -0.4075574454444014 -0.26954508301136226 0.169639139063022 0.5044614262816691 -0.4674860023857403 0.451890806036596 0.12836147101729387 0.08988664953850421 0.022653960137525648 -0.4081782248783391 -0.3270079023542828 0.420892265246628 0.32208544281069634 0.9160029674815712 0.39583919822665364 0.08323106718075042 0.5649992249053282 -0.11354624698559411 0.047920203183601746 0.1859115894629661 0.2858551972717175 0.14798854361964378 0.09632387847442939 0.1501025493870992 0.5611860660115506 -0.024557065243772967 -0.48006701904764704 -0.25656459190629977 -0.34584005267453055 0.09183089911371131 0.1642745955097288 0.11408973465053614 -0.5002129223244832 0.29385039834741167 -0.14074749467401787 0.14540180279599402 0.04273520965755877 -0.1086401173495674 -0.2716323690368756 -0.15131221402657363 0.8017946106600394 0.9129488467831035 0.596217537115783 -0.048920050929501 0.0836171547942544 0.20523872355225145 0.24917597231450664 -0.4404712479576715 -0.5589266905620761 0.08628238900749766 -0.2720510251410936 -0.2937454280049024 -0.3449347127269398 0.18445077207751406 0.36985460353613386 0.397467376961252 -0.07982502541436123 -0.04393352409263692 -0.4451187226640725 0.03802828909459222 -0.1416556208373464 0.18339628462245164 -0.0407147633295371 -0.2961901550451937 -0.39864231751181733 -0.20800930578254045 -0.34172369733638425 -0.10527976480291837 0.9463882163224997 0.4411257242593328 0.4555584944124241 0.6828199398991845 0.5927693873729081 0.04938539541878713 0.28203451839641097 -0.16945529869893514 -0.2186172707556638 -0.2596121550800732 0.0673120875015979 0.07190453140103933 -0.16348930127358705 -0.3386895785948342 0.11426865907331288 -0.46982598024413624 0.005961581124444867 0.16212115771851363 0.2288225043149146 0.26545000626373866 0.35483207665155564 0.05310157103615225 0.273178578911979 0.05347135039872961 -0.39905243621907127 -0.4695233438395286 -0.1610768449736554 0.18514539778723366 0.5721785315317449 0.8451016185086597 0.11570246835805101 -0.08288285648182443 0.5652846501667128 -0.4079969214839874 -0.016848105370923395 0.06307266162985668 0.000680809020717551 -0.4754773788056518 -0.5086974403611721 -0.45969268368781824 0.03094285344267031 0.01650648160770088 -0.3244245900929792 0.09477401916877087 0.392718516260114 -0.37827383061614955 0.039894357699106466 0.23115517164478921 -0.17966186540821602 -0.1385583900105621 0.15569406534989574 0.2834885302464628 0.2166471475519419 0.04277817397832307 0.2950899584923381 0.16977191876791015 0.6007488539388834 0.46361053312574146 0.11181618140242214 0.47445914183934895 0.16350354471459785 -0.14741390987084746 0.4042913389503376 -0.516276435954063 -0.18564909297277277 -0.37518401928592116 0.2613992672379174 0.16361705863254103 -0.2920818330163506 0.04128437597983051 -0.07336595481952689 0.40658837705311957 0.19904610073925463 0.17987918146618528 0.6278709587316433 -0.17368773071138943 -0.2828832088288407 0.2570762523036984 0.5597217094280316 -0.21381180552786197 -0.5328354155365476 -0.28618190515138536 0.09533829722928386 -0.015167796735431168 0.6491268943654476 0.9950881435786526 0.3939312397572746 0.1574901766960903 0.04116146259474429 -0.3470408041975998 0.3958796926730732 -0.07122612088363632 -0.0757598358763919 0.18451799072002992 -0.0852919881407487 0.05452780062258425 -0.588982830378098 0.16985880973393583 0.41643319281545343 0.34097841558341496 0.7613808003638334 -0.03838737937782445 0.21196761202168918 0.31743543829310694 0.21964906375563328 0.03277198381806885 -0.09924516837168182 -0.450880227162517 -0.1580709379243628 -0.42026265207738045 0.3438245930314115 0.03321373635010967 0.03945953548294134 0.552364730240066 0.570366176859827 0.7540954143262059 0.3012393594527765 -0.039038625691211505 0.38139279041413376 0.07437358532541453 -0.38725035906228483 0.04325537519427461 0.3009762521595909 -0.16416792061235397 -0.30577750587537444 -0.482739868572469 -0.36496472364832955 0.032270967268707734 0.279345617285736 -0.2240447041933572 0.6999330159744174 0.4513008917032014 0.26285584991291333 0.45020974300362665 -0.35382680142565487 -0.0953746747749691 0.032899893796661556 0.2746501479264179 0.36183574405385677 0.09607843887569446 0.8973580192665596 0.12434359296580824 0.8642372876992437 0.9030906647434841 -0.03213862690873714 0.3574299794979611 -0.408211364595793 -0.057836889910280735 -0.0725087279115115 0.02706308483563044 0.2968280795492878 0.04552279276158463 -0.062078936885270164 0.3316294440777202 0.4860540811103201 -0.37800112353566195 0.5863782162585836 -0.20235539242989273 0.5151655618985407 -0.10087138730899173 -0.21011917980766368 0.02543806828486773 0.07245935539891786 -0.22317430467816157 -0.5724538929099712 0.06944185720699844 0.459882946632241 0.19318561968854225 0.20968269228170128 0.44257660971190893 0.04845686975954043 0.7840001312038609 0.5540803654985883 0.09886486025872414 -0.12708716896521183 0.3259559998178336 -0.028987088530042504 0.2072248024339374 0.07081973106052575 0.1982298300590314 0.1051414305676797 -0.0307256595869727 0.5524956468498654 0.13306996649510267 0.23094793760639384 -0.1576636669563097 0.3056322301449733 0.15800003850581132 -0.22792215775968297 -0.4219497717475471 0.03334076559511636 0.15709463600721854 -0.04520784910528439 -0.31084415949334254 0.20771735333339414 -0.17006655884229469 0.4183965373555197 0.1633667584109528 0.1847666120277555 0.15674108668504055 0.010772686989047795 -0.43153968881418525 -0.022429137992663817 0.00042142481618946356 -0.1538942771416584 -0.22301680377423008 0.27402508270139936 -0.38269921556574626 0.016856553091397535 -0.35127883406267435 -0.25652517748933007 0.34438884902957106 0.2456649206485864 0.47465468676979405 0.1618430755397763 0.5681160511942724 -0.38942077711655865 -0.3451727079628762 -0.515054572319202 -0.421853186584363 -0.08834997944889236 0.07348835412422197 -0.4645990527338697 0.659004561163756 0.8106333266108603 0.2966124821570931 0.07752594414846586 0.08609385502581957 -0.2789569240593169 -0.36762163554395033 0.024605206332848368 -0.3263507817776784 -0.27168878406243857 0.47405373681237745 0.14552098429334304 0.424321503589596 -0.3084087410120719 0.01165692623945631 0.2721814397323141 -0.17567742527483704 -0.35724761368366276 0.1652568643843868 0.05555302172108084 -0.0720820403710169 -0.010424153481433414 -0.16224939035200675 -0.5529425893970377 -0.2865075173823313 -0.3849750727087865 -0.4523268495539654 0.47674039607262036 0.3325167389852518 0.7101798557270033 0.3153944029219424 0.3931888851192077 0.15288576453427297 -0.3035271053172256 -0.3047104458119843 0.20062150519010694 0.04583951274108436 -0.1137193933304945 -0.10651234336639917 0.35033014674322677 -0.46073219495104323 -0.19825317636691334 -0.06260989037293758 0.45093693557901365 0.6345991415759245 -0.1818693989782398 0.29114435824502305 0.24901835142068615 -0.28425726527433215 -0.13783540993984214 -0.16913948037705315 0.4062872321346465 -0.3716152467283165 0.2732144849979394 -0.17641935596500627 0.2984430870728354 0.2168183791164224 0.5616151109288758 0.8326117733261311 0.8028848008890151 0.7414947509557438 -0.308214267526883 0.25162508670979805 -0.38507172313249943 -0.219910041740799 -0.13628951373762524 -0.22685922280341794 -0.08507528464287219 0.3716042464551086 -0.4767909157936863 0.05149717301526123 -0.13057351483554006 -0.41255908796809254 -0.41451661069068896 0.3701581223567333 0.2235589572076531 0.3784032821407854 0.42003008174180817 -0.3229425940328301 -0.17567758371352585 0.09610701758801174 -0.0776729667573697 -0.0880326690230986 -0.09354475385784025 0.3573007186095046 0.5664915158065028 0.16145783406424008 0.46866724886623246 0.3854998763056751 0.13949889305452906 -0.31341493514883045 0.21990508983003693 -0.6081857395130179 -0.3314702623137734 0.04976733654934165 -0.06063130283435613 -0.43738216952479086 0.044095750351234225 -0.11342423722990853 0.13233337986824992 0.09801162949153305 0.027710873935930785 -0.09554905938095307 -0.4227752937928463 -0.2842428950355222 -0.12130875466232134 0.05440365596957998 -0.059972753010577515 -0.21780182710761997 -0.4927726792501308 -0.024932949996046477 -0.09633735968846384 0.5530639232196275 0.02393777274466571 0.5848278113596325 0.9307931122350491 0.027672516772395073 0.026421198256186194 -0.42624832182657413 0.10117293452251488 -0.02826299021232573 -0.14361674681094164 -0.027284202154460757 0.27078665702692156 -0.4603669381486826 -0.6149903255148091 0.23446835413625816 -0.08399575137070922 0.34400653828202815 -0.00476390800368906 0.23212469406583916 -0.18148900830297013 0.24502087941502743 0.40325342702188216 0.07190129294217852 -0.2999751316189628 -0.191786548874825 -0.2789407804698613 -0.23590524839929242 -0.03168020636034933 0.4518761442532428 0.5879916294638328 0.4264997472940204 0.6154169187334555 0.002429176737347332 -0.23667570916429992 -0.3239691781937997 -0.033940990972339435 -0.33619242698253676 -0.3016690568694286 -0.2053121825362685 0.23569535215766088 -0.5634102695855618 0.05873802342918571 0.13065355689121516 0.2890716221928759 0.34529505927210724 -0.5252578580392596 -0.4369464629217402 0.429168980601601 0.015182115891490718 0.1020162613080942 0.18878875831119432 0.19533884228177106 0.439246923856804 0.5224476739574818 0.3314525013713478 0.07601786665391769 0.8571522602533966 0.04922091454076166 0.2310808528744962 0.8973857174637149 0.2481693244090752 0.10720353343773484 -0.1863942787097358 0.3921158599365843 -0.014809159232831697 0.14339716374638656 -0.28085995110987794 0.1757721047076846 0.22924429222578094 -0.20042282221218585 -0.14712164266972852 -0.30187430333072995 0.4206073457122774 0.030562585891567268 0.4167157765090232 -0.17941017688382727 0.3291467924060705 0.3797143036592778 0.31987991035218777 0.48509374530178717 -0.0912823566601101 -0.28775624583804205 0.42502590876754653 0.6325953579434404 0.5750457750075874 0.20681789313339627 0.5044559416693554 0.3121897365691294 0.42569550161632247 0.6276357009171717 0.6248644595449875 -0.06130127059656877 -0.06398128925245163 -0.2546519530154317 -0.2876639332048324 0.28175622664097666 0.4819234599229596 -0.0805868457904019 0.2667343534930465 0.417071006500478 0.26696873607551563 -0.2936751745094663 0.4841694120149577 -0.01751629200474842 -0.10298784237023276 -0.3583807038470012 0.08986271828275257 -0.2711976087234721 -0.06616486069545316 0.1214116647411504 0.6707202423429883 0.8110238358677513 0.29603775607358385 0.8586981212445739 0.8572309373697911 0.7646509503848735 0.14668700515167224 0.6787257884381079 0.8971534757140833 0.5972451186122816 0.10996409888232857 0.17588237953598734 0.22125764374842904 0.0630417620829613 -0.32237230388930127 -0.13457307689897122 0.3313338713845062 0.4331365427402497 -0.27395708187594425 0.5000669444906432 -0.1285900166515415 0.18300272694560885 0.3279961951891731 0.48011467014074866 0.7454296641763872 0.2235380940212255 0.7872310342358 0.10871583770502045 0.6971653080290601 0.7363142683020356 0.6708816752331768 0.252314736135153 0.8730431470152034 0.168858463370395 0.05363479152083084 0.7175800544993868 0.4659174835619618 0.8119595630502309 0.313244390819159 0.046531407087235806 0.6483839573187284 0.34608698087662215 -0.027346711919389446 0.47726918316896055 0.259321130931091 0.3410496927689252 0.21473492071677178 0.6089329728606291 0.5866056683314945 0.45596622562145367 -0.12888635149638733 0.6705354808933378 0.5822761141368993 0.6381940348037528 0.31798642127809584 0.870599323006609 0.7253958766098824 0.11259046652894222 0.40777803440616267 0.8863803619601417 0.047196701697378995 0.9614166196420495 0.6791625683195628 0.6313759776433766 0.27045368755162047 0.24802406435787508 0.9393916204009529 0.29017870941473517 0.7619223190098617 0.3718611914939897 0.10292258930991055 -0.04218793566242418 0.4770292756601902 0.8959833764350087 0.2831739890940296 0.29114642492055864 0.2609276770842941 0.43104036802776835 0.34253875767342806 0.8108188037738587 0.4719422966985655 0.48591493501724264 0.11682422136703435 0.9791199602063739 0.24997289086882968 0.07336406745960267 0.6631462489752088 0.5953663701568727 
